{"learner":{"attributes":{"best_iteration":"25","best_score":"0.4645531176688285","scikit_learn":"{\"_estimator_type\": \"classifier\"}"},"feature_names":[],"feature_types":[],"gradient_booster":{"model":{"cats":{"enc":[],"feature_segments":[],"sorted_idx":[]},"gbtree_model_param":{"num_parallel_tree":"1","num_trees":"46"},"iteration_indptr":[0,1,2,3,4,5,6,7,8,9,10,11,12,13,14,15,16,17,18,19,20,21,22,23,24,25,26,27,28,29,30,31,32,33,34,35,36,37,38,39,40,41,42,43,44,45,46],"tree_info":[0,0,0,0,0,0,0,0,0,0,0,0,0,0,0,0,0,0,0,0,0,0,0,0,0,0,0,0,0,0,0,0,0,0,0,0,0,0,0,0,0,0,0,0,0,0],"trees":[{"base_weights":[4.7110863E-2,1.1298895E0,-1.0342419E0,1.3377359E0,-1.1422652E0,-1.3050569E0,-2.6334032E-1,1.6250451E0,7.670692E-1,-1.5555556E-1,-4.685573E-1,-7.451456E-1,-1.387686E-1,-4.2372876E-1,1.2331461E-1,1.7120354E-1,-1.1111112E-1,1.2782075E-1,2.8686693E-2,5.3945612E-2,-9.394347E-2,-9.442465E-2,5.3945612E-2,-1.6000001E-1,-8.64197E-3],"categories":[],"categories_nodes":[],"categories_segments":[],"categories_sizes":[],"default_left":[0,0,0,0,0,0,0,0,0,0,0,0,0,0,0,0,0,0,0,0,0,0,0,0,0],"id":0,"left_children":[1,3,5,7,9,11,13,15,17,-1,19,21,-1,23,-1,-1,-1,-1,-1,-1,-1,-1,-1,-1,-1],"loss_changes":[2.0741573E2,4.332036E1,1.8164948E1,1.21223755E1,1.4863911E0,1.9895782E0,6.3550725E0,1.4598129E1,6.8001404E0,0E0,2.6218483E0,3.2113109E0,0E0,8.865286E0,0E0,0E0,0E0,0E0,0E0,0E0,0E0,0E0,0E0,0E0,0E0],"parents":[2147483647,0,0,1,1,2,2,3,3,4,4,5,5,6,6,7,7,8,8,10,10,11,11,13,13],"right_children":[2,4,6,8,10,12,14,16,18,-1,20,22,-1,24,-1,-1,-1,-1,-1,-1,-1,-1,-1,-1,-1],"split_conditions":[1E0,2.1533127E0,3.6187232E-1,1E0,5.383068E-1,-6.800307E-1,3.9549093E0,1E0,1E0,-1.5555556E-1,-1.6223972E0,1E0,-1.387686E-1,1E0,1.2331461E-1,1.7120354E-1,-1.1111112E-1,1.2782075E-1,2.8686693E-2,5.3945612E-2,-9.394347E-2,-9.442465E-2,5.3945612E-2,-1.6000001E-1,-8.64197E-3],"split_indices":[19,6,1,12,1,0,6,22,15,0,0,13,0,10,0,0,0,0,0,0,0,0,0,0,0],"split_type":[0,0,0,0,0,0,0,0,0,0,0,0,0,0,0,0,0,0,0,0,0,0,0,0,0],"sum_hessian":[1.7514928E2,8.749451E1,8.765476E1,8.053847E1,6.956044E0,6.435439E1,2.3300367E1,5.2339745E1,2.8198719E1,3.5E0,3.456044E0,9.564103E0,5.4790295E1,2.1692308E1,1.6080587E0,5.1089745E1,1.25E0,1.2854396E1,1.5344323E1,1.0540293E0,2.4020147E0,8.510074E0,1.0540293E0,4E0,1.7692308E1],"tree_param":{"num_deleted":"0","num_feature":"23","num_nodes":"25","size_leaf_vector":"1"}},{"base_weights":[1.1320037E-2,-8.721549E-1,1.2188656E0,9.4250536E-1,-1.021943E0,1.7368367E-1,4.5919895E-1,1.5753421E-1,-7.371466E-2,-1.3119639E0,-7.412262E-2,7.2817093E-1,-9.766063E-1,-1.6153829E-1,-1.0447228E-1,8.621312E-3,-1.267243E-1,1.3496964E-1,4.7625367E-2,-3.012122E-2,-1.09118514E-1],"categories":[],"categories_nodes":[],"categories_segments":[],"categories_sizes":[],"default_left":[0,0,0,0,0,0,0,0,0,0,0,0,0,0,0,0,0,0,0,0,0],"id":1,"left_children":[1,3,5,7,9,-1,11,-1,-1,13,15,17,19,-1,-1,-1,-1,-1,-1,-1,-1],"loss_changes":[1.8353162E2,2.796939E1,2.7801674E1,9.766868E0,2.526371E1,0E0,1.2615704E1,0E0,0E0,4.035698E0,4.447137E0,3.5118551E0,8.074379E-2,0E0,0E0,0E0,0E0,0E0,0E0,0E0,0E0],"parents":[2147483647,0,0,1,1,2,2,3,3,4,4,6,6,9,9,10,10,11,11,12,12],"right_children":[2,4,6,8,10,-1,12,-1,-1,14,16,18,20,-1,-1,-1,-1,-1,-1,-1,-1],"split_conditions":[1E0,-1.6977865E0,1E0,1.9626634E0,1E0,1.7368367E-1,2.5111666E-1,1.5753421E-1,-7.371466E-2,-2.669514E-1,1.993865E0,-7.956501E-1,-1.3962291E0,-1.6153829E-1,-1.0447228E-1,8.621312E-3,-1.267243E-1,1.3496964E-1,4.7625367E-2,-3.012122E-2,-1.09118514E-1],"split_indices":[8,0,12,3,10,0,1,0,0,2,1,1,0,0,0,0,0,0,0,0,0],"split_type":[0,0,0,0,0,0,0,0,0,0,0,0,0,0,0,0,0,0,0,0,0],"sum_hessian":[1.7003708E2,9.8355286E1,7.16818E1,7.096004E0,9.125928E1,4.1856236E1,2.9825565E1,5.1992154E0,1.8967885E0,6.958344E1,2.1675837E1,2.5534912E1,4.290653E0,3.022363E1,3.9359814E1,1.9925869E1,1.7499672E0,6.1079073E0,1.9427004E1,1.1486584E0,3.1419947E0],"tree_param":{"num_deleted":"0","num_feature":"23","num_nodes":"21","size_leaf_vector":"1"}},{"base_weights":[1.9056398E-2,1.1218778E0,-7.837866E-1,1.5333328E-1,5.2167344E-1,-1.1553704E0,-2.4289005E-1,8.266377E-1,-9.774503E-1,-1.2208196E0,-5.723066E-1,-3.3786785E-2,-1.5190804E-1,8.8926725E-2,-3.004607E-2,-1.3332245E-1,-3.0186463E-2,-1.5204607E-1,-1.08552314E-1,-9.001635E-2,1.9768268E-2,-2.1766188E-2,1.3498227E-1],"categories":[],"categories_nodes":[],"categories_segments":[],"categories_sizes":[],"default_left":[0,0,0,0,0,0,0,0,0,0,0,0,0,0,0,0,0,0,0,0,0,0,0],"id":2,"left_children":[1,3,5,-1,7,9,11,13,15,17,19,21,-1,-1,-1,-1,-1,-1,-1,-1,-1,-1,-1],"loss_changes":[1.5440506E2,1.734227E1,2.0006268E1,0E0,1.5160663E1,1.5744247E0,1.1255236E1,2.1469135E0,9.8321295E-1,4.8484802E-1,2.1707642E0,9.815769E0,0E0,0E0,0E0,0E0,0E0,0E0,0E0,0E0,0E0,0E0,0E0],"parents":[2147483647,0,0,1,1,2,2,4,4,5,5,6,6,7,7,8,8,9,9,10,10,11,11],"right_children":[2,4,6,-1,8,10,12,14,16,18,20,22,-1,-1,-1,-1,-1,-1,-1,-1,-1,-1,-1],"split_conditions":[1E0,1E0,-1.3575795E-1,1.5333328E-1,2.5111666E-1,1E0,1.9626634E0,1.9626634E0,3.2221644E0,-7.985646E-1,-6.6216075E-1,1E0,-1.5190804E-1,8.8926725E-2,-3.004607E-2,-1.3332245E-1,-3.0186463E-2,-1.5204607E-1,-1.08552314E-1,-9.001635E-2,1.9768268E-2,-2.1766188E-2,1.3498227E-1],"split_indices":[9,12,1,0,1,13,3,3,3,1,1,17,0,0,0,0,0,0,0,0,0,0,0],"split_type":[0,0,0,0,0,0,0,0,0,0,0,0,0,0,0,0,0,0,0,0,0,0,0],"sum_hessian":[1.7239853E2,7.2462875E1,9.993565E1,4.2068913E1,3.0393965E1,5.8566067E1,4.1369587E1,2.5628904E1,4.76506E0,5.1672043E1,6.894026E0,3.642744E1,4.9421463E0,2.4479654E1,1.14925E0,2.48368E0,2.2813802E0,1.2888933E1,3.8783108E1,4.7166457E0,2.17738E0,3.2898125E1,3.5293179E0],"tree_param":{"num_deleted":"0","num_feature":"23","num_nodes":"23","size_leaf_vector":"1"}},{"base_weights":[-2.575717E-2,8.127782E-1,-7.942244E-1,9.941898E-1,-8.708458E-1,-1.0334089E0,-1.15188085E-1,5.626668E-1,1.3160131E0,-6.854211E-2,-1.2120978E-1,-4.8210448E-1,-1.1134311E0,1.2361124E0,-4.4108373E-1,8.9413404E-2,1.7265212E-3,5.647086E-2,1.3861732E-1,5.5952977E-2,-5.328979E-2,-6.413122E-2,3.5506062E-2,-1.1272868E-1,-3.0822966E-2,1.491835E-1,2.7626002E-2,-6.842064E-2,1.08180396E-1],"categories":[],"categories_nodes":[],"categories_segments":[],"categories_sizes":[],"default_left":[0,0,0,0,0,0,0,0,0,0,0,0,0,0,0,0,0,0,0,0,0,0,0,0,0,0,0,0,0],"id":3,"left_children":[1,3,5,7,9,11,13,15,17,19,-1,21,23,25,27,-1,-1,-1,-1,-1,-1,-1,-1,-1,-1,-1,-1,-1,-1],"loss_changes":[1.1313113E2,2.6512573E1,1.4756962E1,9.851311E0,2.299088E0,2.4458542E0,1.1547799E1,6.1905336E0,1.4806824E0,1.364547E0,0E0,1.6049416E0,3.026886E-1,8.440223E-1,8.465952E0,0E0,0E0,0E0,0E0,0E0,0E0,0E0,0E0,0E0,0E0,0E0,0E0,0E0,0E0],"parents":[2147483647,0,0,1,1,2,2,3,3,4,4,5,5,6,6,7,7,8,8,9,9,11,11,12,12,13,13,14,14],"right_children":[2,4,6,8,10,12,14,16,18,20,-1,22,24,26,28,-1,-1,-1,-1,-1,-1,-1,-1,-1,-1,-1,-1,-1,-1],"split_conditions":[1E0,2.1533127E0,3.6311987E-1,3.3047732E-2,1.4217534E0,-6.800307E-1,3.8960737E-1,-3.4077877E-1,1E0,7.146717E-1,-1.2120978E-1,1E0,1.4217534E0,1.2047023E0,3.9549093E0,8.9413404E-2,1.7265212E-3,5.647086E-2,1.3861732E-1,5.5952977E-2,-5.328979E-2,-6.413122E-2,3.5506062E-2,-1.1272868E-1,-3.0822966E-2,1.491835E-1,2.7626002E-2,-6.842064E-2,1.08180396E-1],"split_indices":[19,6,1,1,4,0,1,0,8,0,0,13,4,0,6,0,0,0,0,0,0,0,0,0,0,0,0,0,0],"split_type":[0,0,0,0,0,0,0,0,0,0,0,0,0,0,0,0,0,0,0,0,0,0,0,0,0,0,0,0,0],"sum_hessian":[1.7356221E2,8.296972E1,9.059248E1,7.5268936E1,7.7007866E0,6.660839E1,2.3984097E1,3.3328346E1,4.194059E1,2.6563659E0,5.0444207E0,9.333168E0,5.7275223E1,4.1176434E0,1.9866451E1,2.0332119E1,1.2996228E1,4.3549356E0,3.758565E1,1.0420139E0,1.614352E0,8.038412E0,1.2947558E0,5.5913082E1,1.3621403E0,2.8137689E0,1.3038747E0,1.7606384E1,2.2600684E0],"tree_param":{"num_deleted":"0","num_feature":"23","num_nodes":"29","size_leaf_vector":"1"}},{"base_weights":[-2.8772925E-3,-6.71792E-1,9.0947396E-1,1.002239E0,-7.722653E-1,1.3507648E0,2.2896431E-1,1.2994361E-1,-1.4667732E-2,-8.970338E-1,-1.2683074E-1,1.368659E-1,4.4981543E-2,7.811055E-1,-2.4468994E-1,-1.05528556E-1,-6.2227048E-2,-4.31643E-2,5.7800796E-2,1.2295663E-1,5.8692093E-3,1.2126452E-2,-8.509972E-2],"categories":[],"categories_nodes":[],"categories_segments":[],"categories_sizes":[],"default_left":[0,0,0,0,0,0,0,0,0,0,0,0,0,0,0,0,0,0,0,0,0,0,0],"id":4,"left_children":[1,3,5,7,9,11,13,-1,-1,15,17,-1,-1,19,21,-1,-1,-1,-1,-1,-1,-1,-1],"loss_changes":[1.02700226E2,1.710448E1,2.1068947E1,2.2163172E0,7.3078384E0,7.728577E-2,7.8297787E0,0E0,0E0,2.6942787E0,3.7071862E0,0E0,0E0,4.3744564E0,3.7604535E0,0E0,0E0,0E0,0E0,0E0,0E0,0E0,0E0],"parents":[2147483647,0,0,1,1,2,2,3,3,4,4,5,5,6,6,9,9,10,10,13,13,14,14],"right_children":[2,4,6,8,10,12,14,-1,-1,16,18,-1,-1,20,22,-1,-1,-1,-1,-1,-1,-1,-1],"split_conditions":[1E0,-1.9239544E0,1E0,1.9626634E0,1E0,1.9585954E0,1E0,1.2994361E-1,-1.4667732E-2,7.386247E-2,3.517162E-1,1.368659E-1,4.4981543E-2,-1.6510835E-1,9.792886E-1,-1.05528556E-1,-6.2227048E-2,-4.31643E-2,5.7800796E-2,1.2295663E-1,5.8692093E-3,1.2126452E-2,-8.509972E-2],"split_indices":[8,0,12,3,13,0,15,0,0,0,6,0,0,2,2,0,0,0,0,0,0,0,0],"split_type":[0,0,0,0,0,0,0,0,0,0,0,0,0,0,0,0,0,0,0,0,0,0,0],"sum_hessian":[1.6628123E2,9.6092285E1,7.018895E1,4.9326167E0,9.115967E1,4.1980732E1,2.8208218E1,3.814807E0,1.1178097E0,7.606566E1,1.5094009E1,4.065415E1,1.3265836E0,1.2725238E1,1.5482981E1,4.6463802E1,2.9601856E1,1.0807733E1,4.286277E0,7.418158E0,5.30708E0,1.0154145E1,5.3288355E0],"tree_param":{"num_deleted":"0","num_feature":"23","num_nodes":"23","size_leaf_vector":"1"}},{"base_weights":[-1.9598709E-4,7.9805994E-1,-5.1379037E-1,9.225258E-1,-4.3275362E-1,-8.188555E-1,1.7347196E-1,5.5621237E-1,1.2531614E0,3.241202E-2,-7.304041E-1,9.32129E-1,-9.2363256E-1,4.0907204E-1,-1.0299386E0,9.153034E-2,1.674214E-3,3.7134774E-2,1.2781513E-1,-1.1338009E-1,-6.1253235E-3,1.1917362E-1,1.2149285E-2,-1.3434829E-1,-7.317722E-2,5.6581777E-2,-6.49579E-2,-9.653246E-3,-1.2363561E-1],"categories":[],"categories_nodes":[],"categories_segments":[],"categories_sizes":[],"default_left":[0,0,0,0,0,0,0,0,0,0,0,0,0,0,0,0,0,0,0,0,0,0,0,0,0,0,0,0,0],"id":5,"left_children":[1,3,5,7,9,11,13,15,17,-1,19,21,23,25,27,-1,-1,-1,-1,-1,-1,-1,-1,-1,-1,-1,-1,-1,-1],"loss_changes":[6.894334E1,1.0485001E1,2.1595737E1,6.5832176E0,1.7522154E0,1.3894791E1,9.574228E0,5.8571234E0,2.0397568E-1,0E0,1.3168125E0,8.0408716E-1,4.4569626E0,4.96621E0,9.5377684E-1,0E0,0E0,0E0,0E0,0E0,0E0,0E0,0E0,0E0,0E0,0E0,0E0,0E0,0E0],"parents":[2147483647,0,0,1,1,2,2,3,3,4,4,5,5,6,6,7,7,8,8,10,10,11,11,12,12,13,13,14,14],"right_children":[2,4,6,8,10,12,14,16,18,-1,20,22,24,26,28,-1,-1,-1,-1,-1,-1,-1,-1,-1,-1,-1,-1,-1,-1],"split_conditions":[1E0,1.9626634E0,3.6311987E-1,1.4673406E-1,2.1533127E0,-1.2454505E0,1.9626634E0,8.352063E-2,-1.193617E0,3.241202E-2,3.2221644E0,1.4325754E-1,-1.0297434E0,1.8455114E0,-1.8485651E0,9.153034E-2,1.674214E-3,3.7134774E-2,1.2781513E-1,-1.1338009E-1,-6.1253235E-3,1.1917362E-1,1.2149285E-2,-1.3434829E-1,-7.317722E-2,5.6581777E-2,-6.49579E-2,-9.653246E-3,-1.2363561E-1],"split_indices":[9,3,1,1,6,0,3,2,2,0,3,1,2,0,0,0,0,0,0,0,0,0,0,0,0,0,0,0,0],"split_type":[0,0,0,0,0,0,0,0,0,0,0,0,0,0,0,0,0,0,0,0,0,0,0,0,0,0,0,0,0],"sum_hessian":[1.6616266E2,6.483647E1,1.01326195E2,5.9109505E1,5.7269664E0,7.004349E1,3.1282705E1,2.9314272E1,2.979523E1,1.5913947E0,4.1355715E0,3.5088532E0,6.653464E1,2.671299E1,4.569716E0,1.7181181E1,1.213309E1,1.2581708E0,2.853706E1,2.1469176E0,1.9886541E0,2.301629E0,1.2072241E0,1.898567E1,4.754897E1,2.3673395E1,3.039595E0,1.093344E0,3.4763718E0],"tree_param":{"num_deleted":"0","num_feature":"23","num_nodes":"29","size_leaf_vector":"1"}},{"base_weights":[3.6557127E-2,7.468653E-1,-6.1277145E-1,1.148178E0,2.0113735E-1,-7.85027E-1,-5.258372E-2,2.455091E-1,1.2366652E0,3.621564E-1,-1.1772108E-1,-8.4534746E-1,6.863063E-2,4.3136385E-1,-4.8556775E-1,-9.696851E-2,8.5266225E-2,1.2655781E-1,2.0682521E-2,9.092187E-2,1.4937614E-2,-1.1213106E-1,-7.23456E-2,-1.0216337E-1,8.6271115E-2,-1.4293967E-1,5.252721E-3],"categories":[],"categories_nodes":[],"categories_segments":[],"categories_sizes":[],"default_left":[0,0,0,0,0,0,0,0,0,0,0,0,0,0,0,0,0,0,0,0,0,0,0,0,0,0,0],"id":6,"left_children":[1,3,5,7,9,11,13,15,17,19,-1,21,-1,23,25,-1,-1,-1,-1,-1,-1,-1,-1,-1,-1,-1,-1],"loss_changes":[7.4813835E1,1.6729656E1,8.138845E0,3.2439308E0,7.9787846E0,6.328041E0,4.6115985E0,4.67288E0,9.352608E-1,3.5000024E0,0E0,1.2965508E0,0E0,7.430845E0,5.9452915E0,0E0,0E0,0E0,0E0,0E0,0E0,0E0,0E0,0E0,0E0,0E0,0E0],"parents":[2147483647,0,0,1,1,2,2,3,3,4,4,5,5,6,6,7,7,8,8,9,9,11,11,13,13,14,14],"right_children":[2,4,6,8,10,12,14,16,18,20,-1,22,-1,24,26,-1,-1,-1,-1,-1,-1,-1,-1,-1,-1,-1,-1],"split_conditions":[1E0,1E0,1E0,-1.0581936E0,3.054111E0,3.9549093E0,-8.441995E-1,1E0,1E0,-9.2666346E-1,-1.1772108E-1,-1.0297434E0,6.863063E-2,-1.5657595E0,-3.4941542E-1,-9.696851E-2,8.5266225E-2,1.2655781E-1,2.0682521E-2,9.092187E-2,1.4937614E-2,-1.1213106E-1,-7.23456E-2,-1.0216337E-1,8.6271115E-2,-1.4293967E-1,5.252721E-3],"split_indices":[19,12,10,2,6,6,2,8,16,2,0,2,0,2,2,0,0,0,0,0,0,0,0,0,0,0,0],"split_type":[0,0,0,0,0,0,0,0,0,0,0,0,0,0,0,0,0,0,0,0,0,0,0,0,0,0,0],"sum_hessian":[1.602151E2,7.6443E1,8.377211E1,4.34138E1,3.30292E1,6.3763664E1,2.0008444E1,4.212821E0,3.9200977E1,3.0234457E1,2.7947445E0,6.1661186E1,2.1024768E0,9.449948E0,1.05584955E1,1.2046527E0,3.0081685E0,3.7907803E1,1.2931743E0,7.5500593E0,2.2684399E1,1.637924E1,4.5281944E1,1.8499393E0,7.6000094E0,3.2324E0,7.326095E0],"tree_param":{"num_deleted":"0","num_feature":"23","num_nodes":"27","size_leaf_vector":"1"}},{"base_weights":[7.244042E-4,6.7859876E-1,-6.316543E-1,8.604665E-1,-7.821113E-1,-8.344221E-1,-8.8395946E-2,6.0601646E-1,1.2675445E-1,-1.0687052E0,-3.521488E-2,-3.444762E-1,-9.0987694E-1,7.929861E-1,-4.358317E-1,6.7008115E-2,-6.378452E-2,-3.669413E-2,-1.2189608E-1,3.2209687E-2,-3.6725596E-2,8.916065E-3,-1.105356E-1,-9.258669E-2,-1.6748121E-2,8.635739E-2,2.7683163E-2,-1.2797163E-1,1.7841581E-2],"categories":[],"categories_nodes":[],"categories_segments":[],"categories_sizes":[],"default_left":[0,0,0,0,0,0,0,0,0,0,0,0,0,0,0,0,0,0,0,0,0,0,0,0,0,0,0,0,0],"id":7,"left_children":[1,3,5,7,9,11,13,15,-1,17,19,21,23,25,27,-1,-1,-1,-1,-1,-1,-1,-1,-1,-1,-1,-1,-1,-1],"loss_changes":[6.7122246E1,2.0749058E1,8.849892E0,6.242256E0,1.8655834E0,1.8630333E0,7.430615E0,3.8989153E0,0E0,2.2666359E-1,5.335004E-1,3.221846E0,4.4330978E-1,1.2197971E-2,9.164932E0,0E0,0E0,0E0,0E0,0E0,0E0,0E0,0E0,0E0,0E0,0E0,0E0,0E0,0E0],"parents":[2147483647,0,0,1,1,2,2,3,3,4,4,5,5,6,6,7,7,9,9,10,10,11,11,12,12,13,13,14,14],"right_children":[2,4,6,8,10,12,14,16,-1,18,20,22,24,26,28,-1,-1,-1,-1,-1,-1,-1,-1,-1,-1,-1,-1,-1,-1],"split_conditions":[1E0,2.1533127E0,3.6311987E-1,4.6008438E-1,3.616781E-2,-6.800307E-1,-9.32147E-1,1.2174008E0,1.2675445E-1,-1.9239544E0,7.90061E-1,1.2475263E-1,1.1510172E0,1.2047023E0,1.0520471E0,6.7008115E-2,-6.378452E-2,-3.669413E-2,-1.2189608E-1,3.2209687E-2,-3.6725596E-2,8.916065E-3,-1.105356E-1,-9.258669E-2,-1.6748121E-2,8.635739E-2,2.7683163E-2,-1.2797163E-1,1.7841581E-2],"split_indices":[19,6,1,1,0,0,2,2,0,0,0,2,2,0,1,0,0,0,0,0,0,0,0,0,0,0,0,0,0],"split_type":[0,0,0,0,0,0,0,0,0,0,0,0,0,0,0,0,0,0,0,0,0,0,0,0,0,0,0,0,0],"sum_hessian":[1.5458142E2,7.4571686E1,8.0009735E1,6.6680466E1,7.89122E0,5.7873028E1,2.2136705E1,4.256395E1,2.411652E1,5.3915505E0,2.4996696E0,8.466085E0,4.9406944E1,5.896344E0,1.6240362E1,4.091778E1,1.6461678E0,1.5578372E0,3.8337133E0,1.218443E0,1.2812265E0,5.9550385E0,2.5110474E0,4.8123314E1,1.2836282E0,4.594871E0,1.3014733E0,6.3849716E0,9.85539E0],"tree_param":{"num_deleted":"0","num_feature":"23","num_nodes":"29","size_leaf_vector":"1"}},{"base_weights":[-5.60532E-2,6.8517756E-1,-5.532246E-1,1.1273763E-1,1.2542562E-1,7.204028E-1,-6.3067985E-1,6.6790324E-1,-2.5214586E-1,1.09419644E-1,-2.78436E-2,-8.100396E-1,-1.12673E-1,9.24557E-2,1.48021E-2,2.6999093E-3,-9.725143E-2,-8.679038E-2,5.1581986E-2,6.463967E-3,-9.681925E-2],"categories":[],"categories_nodes":[],"categories_segments":[],"categories_sizes":[],"default_left":[0,0,0,0,0,0,0,0,0,0,0,0,0,0,0,0,0,0,0,0,0],"id":8,"left_children":[1,3,5,-1,7,9,11,13,15,-1,-1,17,19,-1,-1,-1,-1,-1,-1,-1,-1],"loss_changes":[5.6071186E1,1.4986473E1,9.432093E0,0E0,5.9236774E0,2.4268634E0,7.9289513E0,1.4383125E0,3.503735E0,0E0,0E0,5.354645E0,3.6066868E0,0E0,0E0,0E0,0E0,0E0,0E0,0E0,0E0],"parents":[2147483647,0,0,1,1,2,2,4,4,5,5,6,6,7,7,8,8,11,11,12,12],"right_children":[2,4,6,-1,8,10,12,14,16,-1,-1,18,20,-1,-1,-1,-1,-1,-1,-1,-1],"split_conditions":[1E0,1E0,-1.9239544E0,1.1273763E-1,1E0,2.3651721E0,1E0,3.517162E-1,2.0445623E-1,1.09419644E-1,-2.78436E-2,3.9549093E0,1.8455114E0,9.24557E-2,1.48021E-2,2.6999093E-3,-9.725143E-2,-8.679038E-2,5.1581986E-2,6.463967E-3,-9.681925E-2],"split_indices":[9,12,0,0,15,4,10,6,1,0,0,6,0,0,0,0,0,0,0,0,0],"split_type":[0,0,0,0,0,0,0,0,0,0,0,0,0,0,0,0,0,0,0,0,0],"sum_hessian":[1.5012428E2,6.0117382E1,9.0006905E1,3.3018787E1,2.709859E1,4.6840644E0,8.532284E1,1.080521E1,1.6293383E1,3.339035E0,1.3450296E0,6.29594E1,2.2363434E1,6.7128406E0,4.092369E0,1.2436659E1,3.8567228E0,6.0657536E1,2.301865E0,1.9289906E1,3.0735297E0],"tree_param":{"num_deleted":"0","num_feature":"23","num_nodes":"21","size_leaf_vector":"1"}},{"base_weights":[-4.925646E-2,5.493554E-1,-5.6427276E-1,1.0113835E0,3.9950255E-2,-6.164714E-1,7.4729964E-2,1.14733286E-1,1.1156616E0,2.8585944E-1,-1.0144833E0,-7.5895596E-1,-1.6074197E-1,5.6173146E-2,-6.824041E-2,7.840737E-2,1.2254428E-1,1.0238735E-1,-2.3058474E-3,-3.7138335E-2,-1.1637367E-1,-1.0078057E-1,-4.8962325E-2,1.2981728E-2,-1.2873752E-1],"categories":[],"categories_nodes":[],"categories_segments":[],"categories_sizes":[],"default_left":[0,0,0,0,0,0,0,0,0,0,0,0,0,0,0,0,0,0,0,0,0,0,0,0,0],"id":9,"left_children":[1,3,5,7,9,11,-1,13,15,17,19,21,23,-1,-1,-1,-1,-1,-1,-1,-1,-1,-1,-1,-1],"loss_changes":[4.543269E1,1.6009789E1,5.880699E0,3.2117615E0,8.969996E0,4.857538E0,0E0,2.1064436E0,1.997757E-1,6.390107E0,1.965456E-1,3.4040756E0,6.5616255E0,0E0,0E0,0E0,0E0,0E0,0E0,0E0,0E0,0E0,0E0,0E0,0E0],"parents":[2147483647,0,0,1,1,2,2,3,3,4,4,5,5,7,7,8,8,9,9,10,10,11,11,12,12],"right_children":[2,4,6,8,10,12,-1,14,16,18,20,22,24,-1,-1,-1,-1,-1,-1,-1,-1,-1,-1,-1,-1],"split_conditions":[1E0,1E0,3.9549093E0,-1.0581936E0,2.1533127E0,1E0,7.4729964E-2,1.4685649E0,3.6187232E-1,-9.438933E-1,-1.7731757E0,-2.2571939E-1,1.6947328E0,5.6173146E-2,-6.824041E-2,7.840737E-2,1.2254428E-1,1.0238735E-1,-2.3058474E-3,-3.7138335E-2,-1.1637367E-1,-1.0078057E-1,-4.8962325E-2,1.2981728E-2,-1.2873752E-1],"split_indices":[19,12,6,2,6,10,0,0,1,0,0,2,0,0,0,0,0,0,0,0,0,0,0,0,0],"split_type":[0,0,0,0,0,0,0,0,0,0,0,0,0,0,0,0,0,0,0,0,0,0,0,0,0],"sum_hessian":[1.4536215E2,6.719437E1,7.8167786E1,3.4718987E1,3.2475384E1,7.5685585E1,2.4822E0,3.83588E0,3.0883104E1,2.6924986E1,5.550399E0,5.715166E1,1.8533926E1,2.6469216E0,1.1889584E0,9.706696E0,2.1176409E1,7.2618423E0,1.9663143E1,1.702589E0,3.8478098E0,2.8280273E1,2.887139E1,1.5437389E1,3.096536E0],"tree_param":{"num_deleted":"0","num_feature":"23","num_nodes":"25","size_leaf_vector":"1"}},{"base_weights":[3.7670255E-2,-3.684309E-1,6.4475554E-1,-9.333584E-1,-1.7797098E-1,1.11167036E-1,1.3839956E-1,-9.722973E-2,-3.5476472E-2,-2.8072947E-1,5.558676E-1,6.921608E-1,-2.546084E-1,-5.54409E-2,7.851726E-3,1.1865753E-1,-6.492449E-2,9.593635E-2,2.7022569E-2,-1.5465143E-3,-6.22752E-2],"categories":[],"categories_nodes":[],"categories_segments":[],"categories_sizes":[],"default_left":[0,0,0,0,0,0,0,0,0,0,0,0,0,0,0,0,0,0,0,0,0],"id":10,"left_children":[1,3,5,7,9,-1,11,-1,-1,13,15,17,19,-1,-1,-1,-1,-1,-1,-1,-1],"loss_changes":[3.7143005E1,9.553158E0,1.4117632E1,1.6288567E-1,5.3434525E0,0E0,6.727174E0,0E0,0E0,6.0415397E0,7.4477043E0,1.179791E0,1.6047401E0,0E0,0E0,0E0,0E0,0E0,0E0,0E0,0E0],"parents":[2147483647,0,0,1,1,2,2,3,3,4,4,6,6,9,9,10,10,11,11,12,12],"right_children":[2,4,6,8,10,-1,12,-1,-1,14,16,18,20,-1,-1,-1,-1,-1,-1,-1,-1],"split_conditions":[1E0,-7.78336E-1,1E0,1E0,1E0,1.11167036E-1,1E0,-9.722973E-2,-3.5476472E-2,3.6311987E-1,2.3651721E0,-7.641283E-1,-1.7309336E-2,-5.54409E-2,7.851726E-3,1.1865753E-1,-6.492449E-2,9.593635E-2,2.7022569E-2,-1.5465143E-3,-6.22752E-2],"split_indices":[8,1,12,14,17,0,15,0,0,1,4,1,1,0,0,0,0,0,0,0,0],"split_type":[0,0,0,0,0,0,0,0,0,0,0,0,0,0,0,0,0,0,0,0,0],"sum_hessian":[1.4869476E2,8.93311E1,5.936367E1,2.154007E1,6.779103E1,3.0262733E1,2.9100937E1,1.9544306E1,1.9957641E0,6.0005928E1,7.7851033E0,1.1763951E1,1.7336985E1,3.375081E1,2.625512E1,5.1205792E0,2.664524E0,6.4228024E0,5.341149E0,1.1141537E1,6.195448E0],"tree_param":{"num_deleted":"0","num_feature":"23","num_nodes":"21","size_leaf_vector":"1"}},{"base_weights":[3.365557E-2,-3.4852648E-1,6.884232E-1,6.1902183E-1,-4.1965026E-1,1.0564649E0,2.5762025E-1,1.0885985E-1,-8.21173E-2,-5.741316E-1,-2.7758416E-2,4.8442948E-1,1.10823326E-1,5.2805877E-1,-4.5089504E-1,-9.081398E-3,-6.840894E-2,9.635492E-3,-1.128654E-1,8.215196E-2,-1.3035208E-2,7.704463E-2,-6.785393E-2,-6.904216E-2,3.8629476E-2],"categories":[],"categories_nodes":[],"categories_segments":[],"categories_sizes":[],"default_left":[0,0,0,0,0,0,0,0,0,0,0,0,0,0,0,0,0,0,0,0,0,0,0,0,0],"id":11,"left_children":[1,3,5,7,9,11,13,-1,-1,15,17,19,-1,21,23,-1,-1,-1,-1,-1,-1,-1,-1,-1,-1],"loss_changes":[3.399166E1,6.1662416E0,7.6629524E0,5.141865E0,4.8604927E0,2.5283432E-1,4.9095464E0,0E0,0E0,3.005577E0,3.364124E0,9.338814E-1,0E0,5.8180037E0,1.7254461E0,0E0,0E0,0E0,0E0,0E0,0E0,0E0,0E0,0E0,0E0],"parents":[2147483647,0,0,1,1,2,2,3,3,4,4,5,5,6,6,9,9,10,10,11,11,13,13,14,14],"right_children":[2,4,6,8,10,12,14,-1,-1,16,18,20,-1,22,24,-1,-1,-1,-1,-1,-1,-1,-1,-1,-1],"split_conditions":[1E0,-1.6977865E0,1E0,1.9626634E0,1E0,-1.193617E0,-1.9000013E-1,1.0885985E-1,-8.21173E-2,1E0,1.0805105E0,1.1670076E0,1.10823326E-1,1.2174008E0,1E0,-9.081398E-3,-6.840894E-2,9.635492E-3,-1.128654E-1,8.215196E-2,-1.3035208E-2,7.704463E-2,-6.785393E-2,-6.904216E-2,3.8629476E-2],"split_indices":[8,0,12,3,10,2,0,0,0,15,2,0,0,2,13,0,0,0,0,0,0,0,0,0,0],"split_type":[0,0,0,0,0,0,0,0,0,0,0,0,0,0,0,0,0,0,0,0,0,0,0,0,0],"sum_hessian":[1.338772E2,8.4830246E1,4.904695E1,5.2813115E0,7.9548935E1,2.5666952E1,2.338E1,4.166841E0,1.1144707E0,5.6723755E1,2.282518E1,2.9896135E0,2.267734E1,1.7105549E1,6.2744493E0,1.0851604E1,4.587215E1,2.1332645E1,1.4925349E0,1.7136989E0,1.2759147E0,1.4545124E1,2.5604253E0,5.0149446E0,1.2595044E0],"tree_param":{"num_deleted":"0","num_feature":"23","num_nodes":"25","size_leaf_vector":"1"}},{"base_weights":[-5.3006638E-2,4.6656463E-1,-5.240868E-1,8.413047E-1,9.7295284E-2,-7.392823E-1,-2.9121585E-2,-1.1722964E-1,9.7232026E-1,2.9289216E-1,-6.489498E-1,-2.3091231E-1,-8.1864214E-1,1.0030922E0,-2.7665153E-1,-9.322587E-2,3.966351E-2,5.117897E-2,1.0551258E-1,3.925529E-2,-8.1277795E-2,-1.1371914E-1,1.3732389E-2,2.4342423E-2,-9.723928E-2,-9.68103E-2,-5.3188957E-2,1.2129684E-1,2.5902737E-2,-9.210281E-2,1.4820861E-2],"categories":[],"categories_nodes":[],"categories_segments":[],"categories_sizes":[],"default_left":[0,0,0,0,0,0,0,0,0,0,0,0,0,0,0,0,0,0,0,0,0,0,0,0,0,0,0,0,0,0,0],"id":12,"left_children":[1,3,5,7,9,11,13,15,17,19,21,23,25,27,29,-1,-1,-1,-1,-1,-1,-1,-1,-1,-1,-1,-1,-1,-1,-1,-1],"loss_changes":[3.369282E1,8.983872E0,7.6628838E0,4.1809883E0,5.171544E0,1.8379326E0,6.129178E0,2.3744721E0,5.50581E-1,3.374648E0,2.9964085E0,3.1126282E0,1.3307705E0,4.1133547E-1,5.4083457E0,0E0,0E0,0E0,0E0,0E0,0E0,0E0,0E0,0E0,0E0,0E0,0E0,0E0,0E0,0E0,0E0],"parents":[2147483647,0,0,1,1,2,2,3,3,4,4,5,5,6,6,7,7,8,8,9,9,10,10,11,11,12,12,13,13,14,14],"right_children":[2,4,6,8,10,12,14,16,18,20,22,24,26,28,30,-1,-1,-1,-1,-1,-1,-1,-1,-1,-1,-1,-1,-1,-1,-1,-1],"split_conditions":[1E0,1E0,3.6311987E-1,-1.0581936E0,1.9626634E0,-6.800307E-1,3.8960737E-1,1E0,1.4673406E-1,4.885037E-1,3.2221644E0,1.2475263E-1,-6.12321E-1,1.2047023E0,1.0520471E0,-9.322587E-2,3.966351E-2,5.117897E-2,1.0551258E-1,3.925529E-2,-8.1277795E-2,-1.1371914E-1,1.3732389E-2,2.4342423E-2,-9.723928E-2,-9.68103E-2,-5.3188957E-2,1.2129684E-1,2.5902737E-2,-9.210281E-2,1.4820861E-2],"split_indices":[19,12,1,2,3,0,1,8,1,0,3,2,1,0,1,0,0,0,0,0,0,0,0,0,0,0,0,0,0,0,0],"split_type":[0,0,0,0,0,0,0,0,0,0,0,0,0,0,0,0,0,0,0,0,0,0,0,0,0,0,0,0,0,0,0],"sum_hessian":[1.3565771E2,6.451328E1,7.114443E1,3.1385008E1,3.3128273E1,4.924196E1,2.190248E1,3.7866187E0,2.7598389E1,2.6729712E1,6.3985615E0,7.1769466E0,4.206501E1,3.6460092E0,1.825647E1,1.1493889E0,2.6372297E0,5.300395E0,2.2297995E1,2.5111246E1,1.6184652E0,3.6720645E0,2.7264967E0,4.7865934E0,2.3903532E0,2.6090208E1,1.5974802E1,2.3523088E0,1.2937003E0,6.790151E0,1.1466318E1],"tree_param":{"num_deleted":"0","num_feature":"23","num_nodes":"31","size_leaf_vector":"1"}},{"base_weights":[4.238106E-2,-2.4617472E-1,4.8601675E-1,-1.1120837E-1,-1.6857888E-1,9.2702436E-1,6.872245E-2,-9.45885E-2,-1.12600975E-1,9.788292E-2,3.613384E-1,8.6822325E-1,-9.7883426E-2,2.595749E-3,-7.0168145E-2,-2.3434881E-2,7.245948E-2,1.6652001E-2,1.1910981E-1,4.9663916E-2,-5.009479E-2],"categories":[],"categories_nodes":[],"categories_segments":[],"categories_sizes":[],"default_left":[0,0,0,0,0,0,0,0,0,0,0,0,0,0,0,0,0,0,0,0,0],"id":13,"left_children":[1,3,5,-1,7,9,11,13,-1,-1,15,17,19,-1,-1,-1,-1,-1,-1,-1,-1],"loss_changes":[1.6837204E1,5.1736665E0,9.469477E0,0E0,5.164481E0,3.820362E-1,3.7742481E0,5.15273E0,0E0,0E0,9.6858275E-1,9.0675306E-1,5.956605E0,0E0,0E0,0E0,0E0,0E0,0E0,0E0,0E0],"parents":[2147483647,0,0,1,1,2,2,4,4,5,5,6,6,7,7,10,10,11,11,12,12],"right_children":[2,4,6,-1,8,10,12,14,-1,-1,16,18,20,-1,-1,-1,-1,-1,-1,-1,-1],"split_conditions":[1E0,-1.5993462E0,1E0,-1.1120837E-1,1.9626634E0,1.5439541E0,-1.7731757E0,1.2047023E0,-1.12600975E-1,9.788292E-2,8.352063E-2,-1.9993438E0,-7.8168356E-1,2.595749E-3,-7.0168145E-2,-2.3434881E-2,7.245948E-2,1.6652001E-2,1.1910981E-1,4.9663916E-2,-5.009479E-2],"split_indices":[8,2,12,0,3,0,0,0,0,0,2,0,1,0,0,0,0,0,0,0,0],"split_type":[0,0,0,0,0,0,0,0,0,0,0,0,0,0,0,0,0,0,0,0,0],"sum_hessian":[1.29592E2,7.8789635E1,5.0802364E1,5.383395E0,7.3406235E1,2.4105515E1,2.6696852E1,6.916032E1,4.2459235E0,2.1414099E1,2.691415E0,3.877662E0,2.2819191E1,5.850137E1,1.0658945E1,1.1539588E0,1.5374563E0,1.699621E0,2.178041E0,9.126051E0,1.3693139E1],"tree_param":{"num_deleted":"0","num_feature":"23","num_nodes":"21","size_leaf_vector":"1"}},{"base_weights":[-3.0478824E-2,3.1085023E-1,-3.1496528E-1,8.025945E-1,-1.8933623E-1,-1.0546064E-1,-2.4343449E-1,9.021466E-1,-9.008489E-2,3.5934561E-1,-4.0766412E-1,4.94472E-1,-3.3518973E-1,-3.9141243E-3,9.925108E-2,6.139573E-2,8.661429E-3,-8.490851E-2,-1.6978357E-2,5.332928E-3,5.6486107E-2,-1.1368449E-1,-2.1756278E-2],"categories":[],"categories_nodes":[],"categories_segments":[],"categories_sizes":[],"default_left":[0,0,0,0,0,0,0,0,0,0,0,0,0,0,0,0,0,0,0,0,0,0,0],"id":14,"left_children":[1,3,5,7,9,-1,11,13,-1,15,17,19,21,-1,-1,-1,-1,-1,-1,-1,-1,-1,-1],"loss_changes":[1.240382E1,1.4445607E1,3.4265103E0,5.8144283E0,3.6945357E0,0E0,4.5516653E0,2.4515953E0,0E0,5.6916773E-1,2.1298335E0,2.048769E-1,5.241661E0,0E0,0E0,0E0,0E0,0E0,0E0,0E0,0E0,0E0,0E0],"parents":[2147483647,0,0,1,1,2,2,3,3,4,4,6,6,7,7,9,9,10,10,11,11,12,12],"right_children":[2,4,6,8,10,-1,12,14,-1,16,18,20,22,-1,-1,-1,-1,-1,-1,-1,-1,-1,-1],"split_conditions":[1E0,1E0,-1.5993462E0,1E0,-5.968074E-1,-1.0546064E-1,-1.2927952E0,-1.2152874E0,-9.008489E-2,-1.105198E0,7.2778237E-1,-1.5245275E0,-1.1328235E0,-3.9141243E-3,9.925108E-2,6.139573E-2,8.661429E-3,-8.490851E-2,-1.6978357E-2,5.332928E-3,5.6486107E-2,-1.1368449E-1,-2.1756278E-2],"split_indices":[19,12,2,22,2,0,2,2,0,2,5,2,2,0,0,0,0,0,0,0,0,0,0],"split_type":[0,0,0,0,0,0,0,0,0,0,0,0,0,0,0,0,0,0,0,0,0,0,0],"sum_hessian":[1.2572987E2,5.711281E1,6.8617065E1,2.849458E1,2.861823E1,4.8388743E0,6.3778187E1,2.736568E1,1.1288983E0,7.9622717E0,2.065596E1,6.5680575E0,5.7210133E1,2.4466586E0,2.4919022E1,3.4708626E0,4.4914093E0,6.333633E0,1.4322327E1,1.1456525E0,5.422405E0,6.2116237E0,5.099851E1],"tree_param":{"num_deleted":"0","num_feature":"23","num_nodes":"23","size_leaf_vector":"1"}},{"base_weights":[6.652758E-3,-2.4768555E-1,4.5084003E-1,7.178755E-1,-3.1049484E-1,8.609401E-1,6.1535478E-2,9.509705E-2,-5.0249114E-3,-4.265419E-1,2.989805E-1,5.2317166E-1,1.0673305E-1,2.1609753E-1,-1.17610455E-1,-3.4241095E-2,-1.1557897E-1,1.1153666E-1,-1.9855665E-2,6.864833E-2,-5.6876144E-3,-2.8507546E-2,6.1223745E-2],"categories":[],"categories_nodes":[],"categories_segments":[],"categories_sizes":[],"default_left":[0,0,0,0,0,0,0,0,0,0,0,0,0,0,0,0,0,0,0,0,0,0,0],"id":15,"left_children":[1,3,5,7,9,11,13,-1,-1,15,17,19,-1,21,-1,-1,-1,-1,-1,-1,-1,-1,-1],"loss_changes":[1.4408309E1,5.1423044E0,7.3600254E0,9.888952E-1,5.563688E0,1.0125637E0,5.016712E0,0E0,0E0,3.5908327E0,5.4537773E0,1.0345054E0,0E0,4.7363667E0,0E0,0E0,0E0,0E0,0E0,0E0,0E0,0E0,0E0],"parents":[2147483647,0,0,1,1,2,2,3,3,4,4,5,5,6,6,9,9,10,10,11,11,13,13],"right_children":[2,4,6,8,10,12,14,-1,-1,16,18,20,-1,22,-1,-1,-1,-1,-1,-1,-1,-1,-1],"split_conditions":[1E0,-1.8485651E0,1E0,1.9626634E0,1.0520471E0,4.6008438E-1,7.146717E-1,9.509705E-2,-5.0249114E-3,5.347523E-1,1.1335114E0,1.0162289E0,1.0673305E-1,-4.6463242E-1,-1.17610455E-1,-3.4241095E-2,-1.1557897E-1,1.1153666E-1,-1.9855665E-2,6.864833E-2,-5.6876144E-3,-2.8507546E-2,6.1223745E-2],"split_indices":[8,0,12,3,1,1,0,0,0,1,1,0,0,1,0,0,0,0,0,0,0,0,0],"split_type":[0,0,0,0,0,0,0,0,0,0,0,0,0,0,0,0,0,0,0,0,0,0,0],"sum_hessian":[1.25548256E2,8.0116516E1,4.5431736E1,4.256243E0,7.5860275E1,2.153496E1,2.3896776E1,3.0827196E0,1.1735238E0,6.3978592E1,1.1881684E1,9.508568E0,1.2026392E1,2.197752E1,1.919256E0,5.8678574E1,5.3000154E0,4.0289645E0,7.8527203E0,7.276411E0,2.2321568E0,9.826268E0,1.2151252E1],"tree_param":{"num_deleted":"0","num_feature":"23","num_nodes":"23","size_leaf_vector":"1"}},{"base_weights":[6.2813293E-3,-1.4526096E-1,4.2125985E-1,7.8155434E-1,-2.400968E-1,-3.4584005E-3,7.49966E-1,9.895399E-1,6.473013E-3,-3.408131E-1,2.7863568E-1,2.6170033E-1,-6.856353E-1,1.212948E-1,4.7624952E-1,3.342959E-2,1.1027298E-1,-4.696801E-2,4.20814E-2,7.241115E-2,-5.4858206E-3,-1.4998403E-2,9.322998E-2,2.6902502E-2,-1.073961E-1,9.101473E-2,-2.1401731E-2],"categories":[],"categories_nodes":[],"categories_segments":[],"categories_sizes":[],"default_left":[0,0,0,0,0,0,0,0,0,0,0,0,0,0,0,0,0,0,0,0,0,0,0,0,0,0,0],"id":16,"left_children":[1,3,5,7,9,11,13,15,-1,17,19,21,23,-1,25,-1,-1,-1,-1,-1,-1,-1,-1,-1,-1,-1,-1],"loss_changes":[7.6932993E0,8.066772E0,4.570619E0,1.2115736E0,4.3835325E0,2.941691E0,1.7603836E0,1.1803913E-1,0E0,6.988494E0,2.1042464E0,3.3755035E0,1.9758935E0,0E0,4.160615E0,0E0,0E0,0E0,0E0,0E0,0E0,0E0,0E0,0E0,0E0,0E0,0E0],"parents":[2147483647,0,0,1,1,2,2,3,3,4,4,5,5,6,6,7,7,9,9,10,10,11,11,12,12,14,14],"right_children":[2,4,6,8,10,12,14,16,-1,18,20,22,24,-1,26,-1,-1,-1,-1,-1,-1,-1,-1,-1,-1,-1,-1],"split_conditions":[1E0,-1.7731757E0,-3.4941542E-1,1.9626634E0,1E0,-8.441995E-1,1.8742529E-1,5.465107E-1,6.473013E-3,1E0,5.735593E-1,-1.1214874E0,1E0,1.212948E-1,1E0,3.342959E-2,1.1027298E-1,-4.696801E-2,4.20814E-2,7.241115E-2,-5.4858206E-3,-1.4998403E-2,9.322998E-2,2.6902502E-2,-1.073961E-1,9.101473E-2,-2.1401731E-2],"split_indices":[10,0,2,3,20,2,2,2,0,14,2,2,19,0,19,0,0,0,0,0,0,0,0,0,0,0,0],"split_type":[0,0,0,0,0,0,0,0,0,0,0,0,0,0,0,0,0,0,0,0,0,0,0,0,0,0,0],"sum_hessian":[1.20362625E2,8.864215E1,3.1720476E1,7.556135E0,8.108601E1,1.4270793E1,1.7449682E1,5.5619054E0,1.9942297E0,6.8189445E1,1.2896571E1,1.0720257E1,3.5505354E0,5.2084203E0,1.2241262E1,1.4015999E0,4.1603055E0,5.8649323E1,9.54012E0,5.019849E0,7.8767223E0,7.123468E0,3.5967894E0,1.1154733E0,2.4350622E0,7.320865E0,4.9203978E0],"tree_param":{"num_deleted":"0","num_feature":"23","num_nodes":"27","size_leaf_vector":"1"}},{"base_weights":[4.042515E-2,4.2681137E-1,-2.788126E-1,4.8256373E-1,-8.472922E-2,-1.9079639E-1,-1.0386724E0,1.0636991E-1,3.681908E-1,-6.349212E-3,-5.545199E-1,-1.2532444E-1,6.5173837E-3,1.6199151E-2,8.4364496E-2,-9.8703496E-2,1.311899E-2,-7.535338E-2,4.3009277E-2],"categories":[],"categories_nodes":[],"categories_segments":[],"categories_sizes":[],"default_left":[0,0,0,0,0,0,0,0,0,0,0,0,0,0,0,0,0,0,0],"id":17,"left_children":[1,3,5,7,-1,9,11,-1,13,15,17,-1,-1,-1,-1,-1,-1,-1,-1],"loss_changes":[1.5068834E1,4.331958E0,4.280867E0,3.1676083E0,0E0,4.105219E0,1.6750283E0,0E0,4.399883E0,5.7471485E0,4.3598547E0,0E0,0E0,0E0,0E0,0E0,0E0,0E0,0E0],"parents":[2147483647,0,0,1,1,2,2,3,3,5,5,6,6,8,8,9,9,10,10],"right_children":[2,4,6,8,-1,10,12,-1,14,16,18,-1,-1,-1,-1,-1,-1,-1,-1],"split_conditions":[1E0,3.054111E0,1.5439541E0,-1.6977865E0,-8.472922E-2,1.2475263E-1,3.0517404E0,1.0636991E-1,1E0,-1.5993462E0,1.6297208E0,-1.2532444E-1,6.5173837E-3,1.6199151E-2,8.4364496E-2,-9.8703496E-2,1.311899E-2,-7.535338E-2,4.3009277E-2],"split_indices":[19,6,0,0,0,2,0,0,10,2,2,0,0,0,0,0,0,0,0],"split_type":[0,0,0,0,0,0,0,0,0,0,0,0,0,0,0,0,0,0,0],"sum_hessian":[1.2019942E2,5.4228054E1,6.597136E1,5.2549828E1,1.6782283E0,6.0244236E1,5.7271247E0,7.2766232E0,4.5273205E1,4.0648502E1,1.9595734E1,4.681721E0,1.0454032E0,3.2513264E1,1.275994E1,4.239991E0,3.6408512E1,1.6496155E1,3.0995781E0],"tree_param":{"num_deleted":"0","num_feature":"23","num_nodes":"19","size_leaf_vector":"1"}},{"base_weights":[1.1158565E-2,4.2305258E-1,-2.1672773E-1,7.826446E-1,1.3616142E-1,-7.797397E-1,-2.9959932E-2,8.461759E-1,1.9406702E-1,7.860951E-1,-1.8860622E-1,-8.380391E-1,8.871816E-3,1.6254479E-1,-6.503001E-1,1.042297E-1,5.1330592E-2,-3.0429587E-2,5.9155323E-2,9.606974E-2,-2.6524067E-2,-5.6841742E-2,1.7428432E-2,-3.367705E-2,-8.762326E-2,2.5972217E-2,-7.388547E-2,4.076385E-2,-7.6981105E-2],"categories":[],"categories_nodes":[],"categories_segments":[],"categories_sizes":[],"default_left":[0,0,0,0,0,0,0,0,0,0,0,0,0,0,0,0,0,0,0,0,0,0,0,0,0,0,0,0,0],"id":18,"left_children":[1,3,5,7,9,11,13,15,17,19,21,23,-1,25,27,-1,-1,-1,-1,-1,-1,-1,-1,-1,-1,-1,-1,-1,-1],"loss_changes":[1.1567349E1,4.420887E0,8.3227005E0,5.561552E-1,5.556336E0,1.0733461E0,7.3472233E0,5.806885E-1,8.0884314E-1,1.8574247E0,2.5649595E0,6.073761E-2,0E0,4.315784E0,2.1548562E0,0E0,0E0,0E0,0E0,0E0,0E0,0E0,0E0,0E0,0E0,0E0,0E0,0E0,0E0],"parents":[2147483647,0,0,1,1,2,2,3,3,4,4,5,5,6,6,7,7,8,8,9,9,10,10,11,11,13,13,14,14],"right_children":[2,4,6,8,10,12,14,16,18,20,22,24,-1,26,28,-1,-1,-1,-1,-1,-1,-1,-1,-1,-1,-1,-1,-1,-1],"split_conditions":[1E0,1E0,-7.78336E-1,1.5439541E0,-7.8168356E-1,7.341193E-2,1E0,4.7833455E-1,8.352063E-2,-1.9000013E-1,7.0316243E-1,-6.800307E-1,8.871816E-3,1.9626634E0,-9.438933E-1,1.042297E-1,5.1330592E-2,-3.0429587E-2,5.9155323E-2,9.606974E-2,-2.6524067E-2,-5.6841742E-2,1.7428432E-2,-3.367705E-2,-8.762326E-2,2.5972217E-2,-7.388547E-2,4.076385E-2,-7.6981105E-2],"split_indices":[9,12,1,0,1,3,11,4,2,0,3,0,0,3,0,0,0,0,0,0,0,0,0,0,0,0,0,0,0],"split_type":[0,0,0,0,0,0,0,0,0,0,0,0,0,0,0,0,0,0,0,0,0,0,0,0,0,0,0,0,0],"sum_hessian":[1.2125709E2,4.288607E1,7.837102E1,1.826479E1,2.4621279E1,1.8731115E1,5.9639904E1,1.6090332E1,2.1744583E0,7.7304373E0,1.6890842E1,1.7585623E1,1.1454936E0,4.6078682E1,1.356122E1,8.783819E0,7.3065124E0,1.0688267E0,1.1056316E0,6.703376E0,1.0270611E0,7.9762836E0,8.914558E0,1.94012E0,1.5645502E1,4.2237087E1,3.841595E0,1.131757E0,1.2429462E1],"tree_param":{"num_deleted":"0","num_feature":"23","num_nodes":"29","size_leaf_vector":"1"}},{"base_weights":[-2.16714E-3,-2.3658635E-1,3.90931E-1,-9.1311073E-1,-1.3471353E-1,9.142209E-2,-5.2827187E-3,-3.7411395E-1,-1.0372589E-1,-5.1777326E-2,-8.689761E-1,8.0284643E-1,-1.9032341E-1,-7.154405E-2,1.960442E-2,-2.7385319E-2,3.8524017E-2,-1.0591035E-1,4.2493246E-3,1.027083E-1,-2.1386847E-3,3.8310155E-2,-4.580539E-2],"categories":[],"categories_nodes":[],"categories_segments":[],"categories_sizes":[],"default_left":[0,0,0,0,0,0,0,0,0,0,0,0,0,0,0,0,0,0,0,0,0,0,0],"id":19,"left_children":[1,3,5,7,9,-1,11,13,-1,15,17,19,21,-1,-1,-1,-1,-1,-1,-1,-1,-1,-1],"loss_changes":[1.0544533E1,4.8168592E0,8.868091E0,2.2807407E-1,3.8200407E0,0E0,3.9394443E0,7.801173E-1,0E0,5.7432404E0,1.1502728E0,9.2936516E-1,3.4628675E0,0E0,0E0,0E0,0E0,0E0,0E0,0E0,0E0,0E0,0E0],"parents":[2147483647,0,0,1,1,2,2,3,3,4,4,6,6,7,7,9,9,10,10,11,11,12,12],"right_children":[2,4,6,8,10,-1,12,14,-1,16,18,20,22,-1,-1,-1,-1,-1,-1,-1,-1,-1,-1],"split_conditions":[1E0,-7.985646E-1,1E0,-3.4077877E-1,1.5439541E0,9.142209E-2,-1.7731757E0,-5.669467E-1,-1.0372589E-1,7.386247E-2,2.750183E0,2.3651721E0,-7.8168356E-1,-7.154405E-2,1.960442E-2,-2.7385319E-2,3.8524017E-2,-1.0591035E-1,4.2493246E-3,1.027083E-1,-2.1386847E-3,3.8310155E-2,-4.580539E-2],"split_indices":[8,1,12,0,0,0,0,0,0,0,0,4,1,0,0,0,0,0,0,0,0,0,0],"split_type":[0,0,0,0,0,0,0,0,0,0,0,0,0,0,0,0,0,0,0,0,0,0,0],"sum_hessian":[1.12424545E2,7.067596E1,4.1748585E1,8.207534E0,6.2468426E1,1.7426092E1,2.4322493E1,2.2879043E0,5.919629E0,5.7090477E1,5.37795E0,3.909548E0,2.0412945E1,1.2717546E0,1.0161496E0,3.8101887E1,1.8988588E1,4.315738E0,1.0622122E0,2.8799393E0,1.0296087E0,6.3600564E0,1.4052888E1],"tree_param":{"num_deleted":"0","num_feature":"23","num_nodes":"23","size_leaf_vector":"1"}},{"base_weights":[-6.879391E-3,-2.2395396E-1,3.676097E-1,-1.021371E-1,-1.505954E-1,8.3135194E-1,5.647075E-2,7.7575976E-1,-2.3333286E-1,-4.9053435E-3,9.1916434E-2,2.4761754E-1,-8.206396E-1,1.0333864E-1,-1.6949316E-2,5.3579606E-2,-2.9288441E-2,4.6046484E-2,-4.0811345E-2,-2.0308103E-3,-1.0217512E-1],"categories":[],"categories_nodes":[],"categories_segments":[],"categories_sizes":[],"default_left":[0,0,0,0,0,0,0,0,0,0,0,0,0,0,0,0,0,0,0,0,0],"id":20,"left_children":[1,3,5,-1,7,9,11,13,15,-1,-1,17,19,-1,-1,-1,-1,-1,-1,-1,-1],"loss_changes":[9.513315E0,4.178724E0,6.1502104E0,0E0,5.469252E0,1.3727283E0,4.6925545E0,1.6091197E0,3.09329E0,0E0,0E0,3.3636994E0,7.8774714E-1,0E0,0E0,0E0,0E0,0E0,0E0,0E0,0E0],"parents":[2147483647,0,0,1,1,2,2,4,4,5,5,6,6,7,7,8,8,11,11,12,12],"right_children":[2,4,6,-1,8,10,12,14,16,-1,-1,18,20,-1,-1,-1,-1,-1,-1,-1,-1],"split_conditions":[1E0,-1.5245275E0,1E0,-1.021371E-1,-1.2927952E0,-1.193617E0,1.9626634E0,1.2047023E0,-1.6977865E0,-4.9053435E-3,9.1916434E-2,-1.1461082E-1,-1.7731757E0,1.0333864E-1,-1.6949316E-2,5.3579606E-2,-2.9288441E-2,4.6046484E-2,-4.0811345E-2,-2.0308103E-3,-1.0217512E-1],"split_indices":[8,2,12,0,2,2,3,0,0,0,0,0,0,0,0,0,0,0,0,0,0],"split_type":[0,0,0,0,0,0,0,0,0,0,0,0,0,0,0,0,0,0,0,0,0],"sum_hessian":[1.1501363E2,7.306379E1,4.1949837E1,5.066567E0,6.799722E1,1.6172821E1,2.5777016E1,4.8884463E0,6.310878E1,1.5068234E0,1.46659975E1,2.175392E1,4.023096E0,3.7681954E0,1.120251E0,3.9604917E0,5.914829E1,1.6647879E1,5.1060414E0,1.0290256E0,2.9940705E0],"tree_param":{"num_deleted":"0","num_feature":"23","num_nodes":"21","size_leaf_vector":"1"}},{"base_weights":[2.2020863E-2,3.0478594E-1,-2.082932E-1,1.9655444E-1,8.3495003E-1,-6.3974357E-1,-6.333559E-2,2.3654526E-1,-6.8365164E-2,9.7138815E-2,1.4992312E-2,-4.2939988E-1,-9.975368E-2,1.16895854E-1,-1.6065405E-1,1.0283567E-2,7.484896E-2,-6.929059E-2,2.5636235E-2,-3.4763098E-2,1.1308811E-2],"categories":[],"categories_nodes":[],"categories_segments":[],"categories_sizes":[],"default_left":[0,0,0,0,0,0,0,0,0,0,0,0,0,0,0,0,0,0,0,0,0],"id":21,"left_children":[1,3,5,7,9,11,13,15,-1,-1,-1,17,-1,-1,19,-1,-1,-1,-1,-1,-1],"loss_changes":[7.664225E0,2.8653255E0,4.0193825E0,1.751098E0,6.6216516E-1,7.920041E-1,6.148021E0,2.9303505E0,0E0,0E0,0E0,2.3402042E0,0E0,0E0,2.4419217E0,0E0,0E0,0E0,0E0,0E0,0E0],"parents":[2147483647,0,0,1,1,2,2,3,3,4,4,5,5,6,6,7,7,11,11,14,14],"right_children":[2,4,6,8,10,12,14,16,-1,-1,-1,18,-1,-1,20,-1,-1,-1,-1,-1,-1],"split_conditions":[1E0,9.4232446E-1,-7.78336E-1,3.054111E0,1.2525145E0,-7.92744E-1,-7.6647884E-1,1.9217479E0,-6.8365164E-2,9.7138815E-2,1.4992312E-2,-7.985646E-1,-9.975368E-2,1.16895854E-1,1E0,1.0283567E-2,7.484896E-2,-6.929059E-2,2.5636235E-2,-3.4763098E-2,1.1308811E-2],"split_indices":[19,1,1,6,6,1,1,5,0,0,0,1,0,0,10,0,0,0,0,0,0],"split_type":[0,0,0,0,0,0,0,0,0,0,0,0,0,0,0,0,0,0,0,0,0],"sum_hessian":[1.1571043E2,5.1795647E1,6.391478E1,4.4152733E1,7.6429133E0,1.5215174E1,4.8699604E1,4.2933384E1,1.2193513E0,6.024895E0,1.6180182E0,1.09675665E1,4.2476077E0,2.7584956E0,4.594111E1,3.4994415E1,7.938967E0,7.9155693E0,3.051997E0,2.7136122E1,1.8804987E1],"tree_param":{"num_deleted":"0","num_feature":"23","num_nodes":"21","size_leaf_vector":"1"}},{"base_weights":[2.4458122E-2,-1.0590036E-1,7.001392E-2,-2.1527637E-2,4.9932367E-1,7.237787E-1,-9.716495E-2,6.4368147E-1,-4.075695E-1,9.026717E-2,1.0511268E-2,6.937412E-3,-4.9672246E-2,7.9038665E-2,-3.134894E-2,-7.457216E-2,1.6060952E-2],"categories":[],"categories_nodes":[],"categories_segments":[],"categories_sizes":[],"default_left":[0,0,0,0,0,0,0,0,0,0,0,0,0,0,0,0,0],"id":22,"left_children":[1,-1,3,5,7,9,11,13,15,-1,-1,-1,-1,-1,-1,-1,-1],"loss_changes":[5.5033298E0,0E0,4.1959996E0,5.0727177E0,2.7181349E0,8.2307196E-1,5.4538536E0,2.5745907E0,7.323215E-1,0E0,0E0,0E0,0E0,0E0,0E0,0E0,0E0],"parents":[2147483647,0,0,2,2,3,3,4,4,5,5,6,6,7,7,8,8],"right_children":[2,-1,4,6,8,10,12,14,16,-1,-1,-1,-1,-1,-1,-1,-1],"split_conditions":[-1.6276076E0,-1.0590036E-1,1.0520471E0,-1.6977865E0,1.6503367E0,2.3651721E0,4.7522467E-1,2.1213634E0,-5.669467E-1,9.026717E-2,1.0511268E-2,6.937412E-3,-4.9672246E-2,7.9038665E-2,-3.134894E-2,-7.457216E-2,1.6060952E-2],"split_indices":[2,0,1,0,2,4,2,1,0,0,0,0,0,0,0,0,0],"split_type":[0,0,0,0,0,0,0,0,0,0,0,0,0,0,0,0,0],"sum_hessian":[1.0899613E2,3.500351E0,1.0549578E2,8.773742E1,1.775836E1,7.294143E0,8.0443275E1,1.5570162E1,2.1881983E0,5.3019695E0,1.9921738E0,5.7361057E1,2.3082216E1,1.3651977E1,1.9181857E0,1.1758902E0,1.0123082E0],"tree_param":{"num_deleted":"0","num_feature":"23","num_nodes":"17","size_leaf_vector":"1"}},{"base_weights":[4.129153E-2,-1.5467076E-1,3.7571427E-1,6.10201E-1,-1.9793706E-1,4.564566E-1,-4.058281E-1,7.605066E-2,1.257614E-2,-1.2515002E-1,-6.912401E-1,5.365835E-1,2.5852613E-2,-8.676991E-2,1.9268839E-2,-8.832869E-2,-6.7676455E-3,-1.17725745E-1,6.1332226E-2,8.17132E-2,3.772881E-2,-9.4525725E-2,4.203466E-2],"categories":[],"categories_nodes":[],"categories_segments":[],"categories_sizes":[],"default_left":[0,0,0,0,0,0,0,0,0,0,0,0,0,0,0,0,0,0,0,0,0,0,0],"id":23,"left_children":[1,3,5,7,9,11,13,-1,-1,15,17,19,21,-1,-1,-1,-1,-1,-1,-1,-1,-1,-1],"loss_changes":[7.3438473E0,2.46401E0,2.7956753E0,1.982212E-1,2.3468885E0,1.2960157E0,1.3843241E0,0E0,0E0,2.5667212E0,6.1068416E0,1.1199026E0,3.0816004E0,0E0,0E0,0E0,0E0,0E0,0E0,0E0,0E0,0E0,0E0],"parents":[2147483647,0,0,1,1,2,2,3,3,4,4,5,5,6,6,9,9,10,10,11,11,12,12],"right_children":[2,4,6,8,10,12,14,-1,-1,16,18,20,22,-1,-1,-1,-1,-1,-1,-1,-1,-1,-1],"split_conditions":[1E0,-1.9239544E0,2.1533127E0,1.4217534E0,1.2174008E0,5.261984E-1,1.4441768E0,7.605066E-2,1.257614E-2,-1.5993462E0,3.9549093E0,1E0,-2.2571939E-1,-8.676991E-2,1.9268839E-2,-8.832869E-2,-6.7676455E-3,-1.17725745E-1,6.1332226E-2,8.17132E-2,3.772881E-2,-9.4525725E-2,4.203466E-2],"split_indices":[8,0,6,4,2,0,2,0,0,2,6,12,2,0,0,0,0,0,0,0,0,0,0],"split_type":[0,0,0,0,0,0,0,0,0,0,0,0,0,0,0,0,0,0,0,0,0,0,0],"sum_hessian":[1.1017446E2,6.980702E1,4.0367443E1,3.0358138E0,6.677121E1,3.6964535E1,3.4029078E0,1.882017E0,1.1537967E0,5.9278362E1,7.4928455E0,3.0957787E1,6.00675E0,1.6668564E0,1.7360514E0,3.164655E0,5.6113705E1,5.530158E0,1.9626871E0,9.7161665E0,2.124162E1,1.3319114E0,4.6748385E0],"tree_param":{"num_deleted":"0","num_feature":"23","num_nodes":"23","size_leaf_vector":"1"}},{"base_weights":[3.328158E-2,-1.1093873E-1,2.9652497E-1,-5.08713E-3,-8.25995E-1,7.4030495E-1,5.398447E-2,-1.6718914E-1,3.8962477E-1,-4.6411348E-3,-1.0285532E0,7.840045E-1,1.786249E-2,1.525879E-1,-9.5556416E-2,2.8360331E-2,-3.672928E-2,1.4133166E-1,2.3284985E-4,-3.303752E-2,-1.1754787E-1,5.1247984E-2,9.2803724E-2,-1.1880227E-3,5.0201632E-2],"categories":[],"categories_nodes":[],"categories_segments":[],"categories_sizes":[],"default_left":[0,0,0,0,0,0,0,0,0,0,0,0,0,0,0,0,0,0,0,0,0,0,0,0,0],"id":24,"left_children":[1,3,5,7,9,11,13,15,17,-1,19,21,-1,23,-1,-1,-1,-1,-1,-1,-1,-1,-1,-1,-1],"loss_changes":[4.2115045E0,5.4330077E0,4.182458E0,4.13314E0,1.41398E0,1.9830513E-1,2.7782319E0,4.232786E0,7.4541836E0,0E0,3.6050987E-1,1.3041973E-2,0E0,1.4400575E0,0E0,0E0,0E0,0E0,0E0,0E0,0E0,0E0,0E0,0E0,0E0],"parents":[2147483647,0,0,1,1,2,2,3,3,4,4,5,5,6,6,7,7,8,8,10,10,11,11,13,13],"right_children":[2,4,6,8,10,12,14,16,18,-1,20,22,-1,24,-1,-1,-1,-1,-1,-1,-1,-1,-1,-1,-1],"split_conditions":[1E0,1.2047023E0,1E0,7.386247E-2,-1.2927952E0,1.3329129E0,7.146717E-1,-7.698553E-1,2.246411E-1,-4.6411348E-3,1E0,3.6187232E-1,1.786249E-2,-1.475222E-1,-9.5556416E-2,2.8360331E-2,-3.672928E-2,1.4133166E-1,2.3284985E-4,-3.303752E-2,-1.1754787E-1,5.1247984E-2,9.2803724E-2,-1.1880227E-3,5.0201632E-2],"split_indices":[8,0,12,0,2,3,0,2,0,0,19,1,0,1,0,0,0,0,0,0,0,0,0,0,0],"split_type":[0,0,0,0,0,0,0,0,0,0,0,0,0,0,0,0,0,0,0,0,0,0,0,0,0],"sum_hessian":[1.0906461E2,7.083537E1,3.8229237E1,6.2578793E1,8.256582E0,1.2784661E1,2.5444576E1,4.4769207E1,1.7809586E1,1.9563452E0,6.3002377E0,1.1494547E1,1.2901137E0,2.395384E1,1.490736E0,1.3635021E1,3.1134186E1,4.161315E0,1.364827E1,1.660111E0,4.6401267E0,5.5638614E0,5.930686E0,1.6944462E1,7.009379E0],"tree_param":{"num_deleted":"0","num_feature":"23","num_nodes":"25","size_leaf_vector":"1"}},{"base_weights":[-6.9056645E-2,1.7743526E-1,-2.1520038E-1,6.0118043E-1,-6.512544E-2,-1.3315347E-1,-6.881066E-1,2.3103093E-1,1.0031915E-1,4.572323E-1,-3.903351E-1,-5.8126706E-1,-2.1414667E-2,3.841414E-2,-1.1078558E-1,5.969158E-2,-9.323502E-2,-3.4394005E-4,6.1385937E-2,8.177651E-3,-6.280219E-2,-1.9354625E-2,-1.0272682E-1,2.5919447E-2,-3.4723338E-2,4.283753E-2,-3.7006933E-2],"categories":[],"categories_nodes":[],"categories_segments":[],"categories_sizes":[],"default_left":[0,0,0,0,0,0,0,0,0,0,0,0,0,0,0,0,0,0,0,0,0,0,0,0,0,0,0],"id":25,"left_children":[1,3,5,7,9,11,13,15,-1,17,19,21,23,25,-1,-1,-1,-1,-1,-1,-1,-1,-1,-1,-1,-1,-1],"loss_changes":[3.9237437E0,4.2220297E0,2.5532784E0,1.9872856E0,4.728302E0,2.9582329E0,3.042767E0,4.414391E0,0E0,7.768407E-1,1.964174E0,1.8421817E0,4.52659E0,8.863516E-1,0E0,0E0,0E0,0E0,0E0,0E0,0E0,0E0,0E0,0E0,0E0,0E0,0E0],"parents":[2147483647,0,0,1,1,2,2,3,3,4,4,5,5,6,6,7,7,9,9,10,10,11,11,12,12,13,13],"right_children":[2,4,6,8,10,12,14,16,-1,18,20,22,24,26,-1,-1,-1,-1,-1,-1,-1,-1,-1,-1,-1,-1,-1],"split_conditions":[1E0,1E0,1.2047023E0,-1.475222E-1,1E0,-1.1328235E0,-9.32147E-1,3.517162E-1,1.0031915E-1,-1.1461082E-1,-7.1772534E-1,-1.2927952E0,1.4078145E-1,1.8455114E0,-1.1078558E-1,5.969158E-2,-9.323502E-2,-3.4394005E-4,6.1385937E-2,8.177651E-3,-6.280219E-2,-1.9354625E-2,-1.0272682E-1,2.5919447E-2,-3.4723338E-2,4.283753E-2,-3.7006933E-2],"split_indices":[9,15,0,1,12,2,2,6,0,0,0,2,2,0,0,0,0,0,0,0,0,0,0,0,0,0,0],"split_type":[0,0,0,0,0,0,0,0,0,0,0,0,0,0,0,0,0,0,0,0,0,0,0,0,0,0,0],"sum_hessian":[1.0686256E2,3.969584E1,6.716672E1,1.3912577E1,2.5783264E1,5.8328564E1,8.838157E0,8.063158E0,5.849419E0,9.737212E0,1.6046051E1,1.0802911E1,4.7525654E1,3.5690932E0,5.2690635E0,6.504421E0,1.5587361E0,2.7187784E0,7.018434E0,5.5929174E0,1.0453134E1,6.5461364E0,4.256774E0,2.5644222E1,2.188143E1,1.8010312E0,1.768062E0],"tree_param":{"num_deleted":"0","num_feature":"23","num_nodes":"27","size_leaf_vector":"1"}},{"base_weights":[2.0711076E-2,4.631098E-1,-1.8114622E-1,7.589436E-1,1.3667081E-1,-3.5612324E-1,1.2326047E-1,9.145198E-1,-1.5592563E-1,-1.6644485E-1,1.1417252E-1,-1.852654E-2,-5.179663E-1,-8.467102E-2,2.3965175E-1,2.9892353E-2,1.1704021E-1,4.2073026E-2,-6.7917034E-2,1.228302E-2,-5.851406E-2,2.868006E-2,-9.7399585E-2,1.7562946E-2,-6.524306E-2,3.5016093E-2,-4.9705602E-2],"categories":[],"categories_nodes":[],"categories_segments":[],"categories_sizes":[],"default_left":[0,0,0,0,0,0,0,0,0,0,0,0,0,0,0,0,0,0,0,0,0,0,0,0,0,0,0],"id":26,"left_children":[1,3,5,7,9,11,13,15,17,19,-1,21,23,-1,25,-1,-1,-1,-1,-1,-1,-1,-1,-1,-1,-1,-1],"loss_changes":[9.2434435E0,3.026928E0,3.833697E0,2.5318556E0,5.256749E0,2.4730172E0,3.2187438E0,1.9329958E0,1.2796692E0,1.7251976E0,0E0,4.877356E0,2.9756021E0,0E0,2.1793056E0,0E0,0E0,0E0,0E0,0E0,0E0,0E0,0E0,0E0,0E0,0E0,0E0],"parents":[2147483647,0,0,1,1,2,2,3,3,4,4,5,5,6,6,7,7,8,8,9,9,11,11,12,12,14,14],"right_children":[2,4,6,8,10,12,14,16,18,20,-1,22,24,-1,26,-1,-1,-1,-1,-1,-1,-1,-1,-1,-1,-1,-1],"split_conditions":[1E0,3.616781E-2,7.386247E-2,1.4399086E0,1.239772E0,-7.1772534E-1,-7.9323167E-1,-7.9311466E-1,-5.669467E-1,4.885037E-1,1.1417252E-1,2.1533127E0,-7.9323167E-1,-8.467102E-2,1.6193434E0,2.9892353E-2,1.1704021E-1,4.2073026E-2,-6.7917034E-2,1.228302E-2,-5.851406E-2,2.868006E-2,-9.7399585E-2,1.7562946E-2,-6.524306E-2,3.5016093E-2,-4.9705602E-2],"split_indices":[15,0,0,1,1,0,1,0,0,0,0,6,1,0,0,0,0,0,0,0,0,0,0,0,0,0,0],"split_type":[0,0,0,0,0,0,0,0,0,0,0,0,0,0,0,0,0,0,0,0,0,0,0,0,0,0,0],"sum_hessian":[1.0156896E2,3.141792E1,7.015104E1,1.57865305E1,1.563139E1,4.4437744E1,2.5713299E1,1.3492477E1,2.294053E0,1.26505E1,2.980889E0,1.4761158E1,2.9676584E1,2.0826256E0,2.3630674E1,4.5982666E0,8.894211E0,1.1845303E0,1.1095228E0,7.8994446E0,4.7510557E0,1.1716802E1,3.0443563E0,4.7693095E0,2.4907274E1,2.1004595E1,2.6260796E0],"tree_param":{"num_deleted":"0","num_feature":"23","num_nodes":"27","size_leaf_vector":"1"}},{"base_weights":[-2.127185E-2,-1.1118549E-1,4.2648515E-1,-1.0055105E-1,-7.1576886E-2,9.054341E-2,1.2870677E-1,-2.4785077E-2,-8.152409E-1,7.943378E-1,-4.1406474E-1,-8.405089E-3,4.080598E-2,-1.118808E-1,1.955581E-2,2.0763347E-2,8.863338E-2,-8.5950285E-2,9.406383E-3],"categories":[],"categories_nodes":[],"categories_segments":[],"categories_sizes":[],"default_left":[0,0,0,0,0,0,0,0,0,0,0,0,0,0,0,0,0,0,0],"id":27,"left_children":[1,3,5,-1,7,-1,9,11,13,15,17,-1,-1,-1,-1,-1,-1,-1,-1],"loss_changes":[4.3743215E0,3.1265712E0,2.476265E0,0E0,3.0260568E0,0E0,4.800087E0,2.1735456E0,1.7993004E0,1.3449216E-1,1.7725903E0,0E0,0E0,0E0,0E0,0E0,0E0,0E0,0E0],"parents":[2147483647,0,0,1,1,2,2,4,4,6,6,7,7,8,8,9,9,10,10],"right_children":[2,4,6,-1,8,-1,10,12,14,16,18,-1,-1,-1,-1,-1,-1,-1,-1],"split_conditions":[1.0520471E0,-8.721693E-1,1.3336037E0,-1.0055105E-1,7.6916385E-1,9.054341E-2,1E0,1E0,1E0,1.4747025E0,1.5137757E0,-8.405089E-3,4.080598E-2,-1.118808E-1,1.955581E-2,2.0763347E-2,8.863338E-2,-8.5950285E-2,9.406383E-3],"split_indices":[1,1,1,0,1,0,19,10,8,1,1,0,0,0,0,0,0,0,0],"split_type":[0,0,0,0,0,0,0,0,0,0,0,0,0,0,0,0,0,0,0],"sum_hessian":[1.0647541E2,8.9295715E1,1.71797E1,2.7528481E0,8.654286E1,5.8039513E0,1.1375749E1,8.239204E1,4.15083E0,4.9014015E0,6.474347E0,7.317818E1,9.213857E0,3.1099749E0,1.040855E0,1.1058466E0,3.7955549E0,3.0815115E0,3.3928359E0],"tree_param":{"num_deleted":"0","num_feature":"23","num_nodes":"19","size_leaf_vector":"1"}},{"base_weights":[2.1838533E-2,7.777019E-1,-3.2517355E-2,2.810091E-1,1.0358715E-1,-9.600084E-2,4.5720013E-4,6.0358226E-2,-2.9090105E-2,7.14648E-1,-6.0643192E-2,2.9424602E-2,9.457141E-2,-9.955173E-2,-2.0216126E-3],"categories":[],"categories_nodes":[],"categories_segments":[],"categories_sizes":[],"default_left":[0,0,0,0,0,0,0,0,0,0,0,0,0,0,0],"id":28,"left_children":[1,3,5,7,-1,-1,9,-1,-1,11,13,-1,-1,-1,-1],"loss_changes":[4.2697E0,6.027765E-1,2.9773169E0,8.685598E-1,0E0,0E0,4.1886044E0,0E0,0E0,4.5655966E-1,3.3219767E0,0E0,0E0,0E0,0E0],"parents":[2147483647,0,0,1,1,2,2,3,3,6,6,9,9,10,10],"right_children":[2,4,6,8,-1,-1,10,-1,-1,12,14,-1,-1,-1,-1],"split_conditions":[-1.6977865E0,-1.9993438E0,-8.721693E-1,-2.074733E0,1.0358715E-1,-9.600084E-2,-1.2927952E0,6.0358226E-2,-2.9090105E-2,1E0,-1.094672E0,2.9424602E-2,9.457141E-2,-9.955173E-2,-2.0216126E-3],"split_indices":[0,0,1,0,0,0,2,0,0,15,0,0,0,0,0],"split_type":[0,0,0,0,0,0,0,0,0,0,0,0,0,0,0],"sum_hessian":[1.0230649E2,5.970747E0,9.633575E1,2.7563224E0,3.2144244E0,2.3421917E0,9.399355E1,1.726915E0,1.0294074E0,6.5646243E0,8.7428925E1,3.1347265E0,3.429898E0,2.6447265E0,8.47842E1],"tree_param":{"num_deleted":"0","num_feature":"23","num_nodes":"15","size_leaf_vector":"1"}},{"base_weights":[2.2965917E-2,-1.02892295E-1,6.8485186E-2,4.1117352E-1,-2.4922814E-2,1.3152918E-1,8.924578E-1,-3.6631602E-1,5.7510357E-2,6.6173516E-2,-4.4674132E-2,4.9580052E-2,1.1526485E-1,-6.3728325E-2,9.878523E-2,3.881118E-2,-6.6091823E-3],"categories":[],"categories_nodes":[],"categories_segments":[],"categories_sizes":[],"default_left":[0,0,0,0,0,0,0,0,0,0,0,0,0,0,0,0,0],"id":29,"left_children":[1,-1,3,5,7,9,11,13,15,-1,-1,-1,-1,-1,-1,-1,-1],"loss_changes":[5.065656E0,0E0,3.2411585E0,2.8000252E0,2.2797096E0,4.858841E0,2.3284149E-1,6.4072123E0,2.7026987E0,0E0,0E0,0E0,0E0,0E0,0E0,0E0,0E0],"parents":[2147483647,0,0,2,2,3,3,4,4,5,5,6,6,7,7,8,8],"right_children":[2,-1,4,6,8,10,12,14,16,-1,-1,-1,-1,-1,-1,-1,-1],"split_conditions":[-1.5657595E0,-1.02892295E-1,-9.2666346E-1,1E0,-2.669514E-1,3.616781E-2,-1.2116494E0,7.341193E-2,1.3176523E-1,6.6173516E-2,-4.4674132E-2,4.9580052E-2,1.1526485E-1,-6.3728325E-2,9.878523E-2,3.881118E-2,-6.6091823E-3],"split_indices":[2,0,2,10,2,0,2,3,2,0,0,0,0,0,0,0,0],"split_type":[0,0,0,0,0,0,0,0,0,0,0,0,0,0,0,0,0],"sum_hessian":[1.0332462E2,3.3896759E0,9.9934944E1,2.0676527E1,7.925842E1,1.3883169E1,6.7933583E0,1.4745755E1,6.4512665E1,7.167281E0,6.715888E0,3.8419242E0,2.9514344E0,1.2728243E1,2.017512E0,1.6973436E1,4.7539227E1],"tree_param":{"num_deleted":"0","num_feature":"23","num_nodes":"17","size_leaf_vector":"1"}},{"base_weights":[-6.654817E-2,1.766085E-1,-2.3681712E-1,1.2224831E-2,6.867688E-1,-1.6362223E-1,-9.0904635E-1,1.7541027E-1,-7.0618165E-1,1.0027008E0,-3.0755115E-1,-3.1574255E-1,2.34684E-1,-1.6328787E-2,-1.0549171E-1,2.9638445E-2,-8.995638E-2,-1.10747956E-1,-1.5123199E-2,5.3909738E-2,1.1872754E-1,1.2784448E-2,-6.34062E-2,-1.4854177E-2,-5.8454394E-2,-1.2464642E-2,6.459293E-2],"categories":[],"categories_nodes":[],"categories_segments":[],"categories_sizes":[],"default_left":[0,0,0,0,0,0,0,0,0,0,0,0,0,0,0,0,0,0,0,0,0,0,0,0,0,0,0],"id":30,"left_children":[1,3,5,7,9,11,13,15,17,19,21,23,25,-1,-1,-1,-1,-1,-1,-1,-1,-1,-1,-1,-1,-1,-1],"loss_changes":[4.3993998E0,3.674828E0,2.9181414E0,4.1373634E0,3.664948E0,3.553774E0,4.696641E-1,3.9987597E0,1.2880778E0,7.3877335E-2,5.5611897E-1,1.800097E0,2.5106804E0,0E0,0E0,0E0,0E0,0E0,0E0,0E0,0E0,0E0,0E0,0E0,0E0,0E0,0E0],"parents":[2147483647,0,0,1,1,2,2,3,3,4,4,5,5,6,6,7,7,8,8,9,9,10,10,11,11,12,12],"right_children":[2,4,6,8,10,12,14,16,18,20,22,24,26,-1,-1,-1,-1,-1,-1,-1,-1,-1,-1,-1,-1,-1,-1],"split_conditions":[1E0,5.383068E-1,1.5439541E0,5.261984E-1,1.5112447E0,1E0,-1.2927952E0,2.1533127E0,1.3931755E0,4.7833455E-1,2.592414E0,1.2475263E-1,3.3772507E-1,-1.6328787E-2,-1.0549171E-1,2.9638445E-2,-8.995638E-2,-1.10747956E-1,-1.5123199E-2,5.3909738E-2,1.1872754E-1,1.2784448E-2,-6.34062E-2,-1.4854177E-2,-5.8454394E-2,-1.2464642E-2,6.459293E-2],"split_indices":[19,1,0,0,2,10,2,6,0,4,3,2,0,0,0,0,0,0,0,0,0,0,0,0,0,0,0],"split_type":[0,0,0,0,0,0,0,0,0,0,0,0,0,0,0,0,0,0,0,0,0,0,0,0,0,0,0],"sum_hessian":[1.042503E2,4.292005E1,6.1330246E1,3.3235035E1,9.685019E0,5.6429398E1,4.9008455E0,2.769905E1,5.535982E0,7.34334E0,2.3416786E0,4.0984116E1,1.5445284E1,1.1485137E0,3.7523317E0,2.5548222E1,2.1508296E0,2.6349468E0,2.9010353E0,3.2075534E0,4.1357865E0,1.2642624E0,1.0774161E0,2.622448E1,1.4759636E1,8.614857E0,6.830428E0],"tree_param":{"num_deleted":"0","num_feature":"23","num_nodes":"27","size_leaf_vector":"1"}},{"base_weights":[5.323478E-2,-9.685913E-2,8.852129E-2,1.397063E-1,-4.8261866E-1,3.2844222E-1,-8.1076376E-2,-7.317854E-1,2.5563402E-2,1.4408111E-2,7.780957E-2,-6.28471E-2,1.3248323E-2,-9.103485E-3,-1.0320254E-1],"categories":[],"categories_nodes":[],"categories_segments":[],"categories_sizes":[],"default_left":[0,0,0,0,0,0,0,0,0,0,0,0,0,0,0],"id":31,"left_children":[1,-1,3,5,7,9,11,13,-1,-1,-1,-1,-1,-1,-1],"loss_changes":[3.8241043E0,0E0,3.0240035E0,3.9266102E0,1.7584816E0,4.087243E0,5.219491E0,1.184583E0,0E0,0E0,0E0,0E0,0E0,0E0,0E0],"parents":[2147483647,0,0,2,2,3,3,4,4,5,5,6,6,7,7],"right_children":[2,-1,4,6,8,10,12,14,-1,-1,-1,-1,-1,-1,-1],"split_conditions":[-1.6276076E0,-9.685913E-2,1.5439541E0,2.0389488E-1,1E0,-2.2571939E-1,-1.475222E-1,-9.6789545E-1,2.5563402E-2,1.4408111E-2,7.780957E-2,-6.28471E-2,1.3248323E-2,-9.103485E-3,-1.0320254E-1],"split_indices":[2,0,0,2,8,2,1,2,0,0,0,0,0,0,0],"split_type":[0,0,0,0,0,0,0,0,0,0,0,0,0,0,0],"sum_hessian":[1.0268021E2,2.5445926E0,1.0013561E2,9.259291E1,7.5426974E0,4.965648E1,4.2936436E1,5.645912E0,1.8967849E0,3.6153652E1,1.3502826E1,1.1504736E1,3.14317E1,2.2172413E0,3.4286714E0],"tree_param":{"num_deleted":"0","num_feature":"23","num_nodes":"15","size_leaf_vector":"1"}},{"base_weights":[-1.4613938E-2,-1.0192878E-1,4.655105E-1,5.0918883E-1,-1.9404839E-1,-1.2854238E-1,7.995567E-1,8.0627054E-1,-1.7419761E-1,-7.0285566E-2,-5.307529E-1,7.776913E-2,-4.3840164E-1,9.0799874E-1,1.590101E-3,1.3187759E-2,8.8476345E-2,-8.67041E-2,5.4501038E-2,-2.0102216E-2,5.0813943E-2,-6.8463184E-2,1.074401E-2,2.9373536E-2,-7.72885E-2,9.864714E-2,2.1318486E-2],"categories":[],"categories_nodes":[],"categories_segments":[],"categories_sizes":[],"default_left":[0,0,0,0,0,0,0,0,0,0,0,0,0,0,0,0,0,0,0,0,0,0,0,0,0,0,0],"id":32,"left_children":[1,3,5,7,9,11,13,15,17,19,21,-1,23,25,-1,-1,-1,-1,-1,-1,-1,-1,-1,-1,-1,-1,-1],"loss_changes":[4.250443E0,4.9205937E0,3.199802E0,2.4743133E0,3.0945215E0,2.1602113E0,8.4625244E-1,3.168645E-1,2.6179748E0,4.345094E0,2.0422888E0,0E0,1.5659432E0,2.7381897E-1,0E0,0E0,0E0,0E0,0E0,0E0,0E0,0E0,0E0,0E0,0E0,0E0,0E0],"parents":[2147483647,0,0,1,1,2,2,3,3,4,4,5,5,6,6,7,7,8,8,9,9,10,10,12,12,13,13],"right_children":[2,4,6,8,10,12,14,16,18,20,22,-1,24,26,-1,-1,-1,-1,-1,-1,-1,-1,-1,-1,-1,-1,-1],"split_conditions":[1.0520471E0,-9.438933E-1,-7.691616E-2,1.2685285E0,4.885037E-1,1.8742529E-1,1.5439541E0,-7.835915E-1,5.383068E-1,1.11557126E-1,4.9357957E-1,7.776913E-2,-7.1772534E-1,2.459943E0,1.590101E-3,1.3187759E-2,8.8476345E-2,-8.67041E-2,5.4501038E-2,-2.0102216E-2,5.0813943E-2,-6.8463184E-2,1.074401E-2,2.9373536E-2,-7.72885E-2,9.864714E-2,2.1318486E-2],"split_indices":[1,0,0,2,0,2,0,1,1,0,1,0,0,1,0,0,0,0,0,0,0,0,0,0,0,0,0],"split_type":[0,0,0,0,0,0,0,0,0,0,0,0,0,0,0,0,0,0,0,0,0,0,0,0,0,0,0],"sum_hessian":[9.925751E1,8.4650734E1,1.4606776E1,1.0495638E1,7.41551E1,5.4787703E0,9.128006E0,7.1901293E0,3.3055089E0,5.510781E1,1.9047287E1,1.0112842E0,4.467486E0,7.879036E0,1.2489699E0,1.0290333E0,6.161096E0,1.5789196E0,1.7265892E0,4.548066E1,9.627149E0,1.5288266E1,3.7590203E0,1.4391696E0,3.0283165E0,6.7023106E0,1.1767254E0],"tree_param":{"num_deleted":"0","num_feature":"23","num_nodes":"27","size_leaf_vector":"1"}},{"base_weights":[-4.618812E-3,2.8115976E-1,-1.2668979E-1,6.4846116E-1,-7.9625405E-2,-2.9159823E-1,1.3214314E-1,-1.3572605E-1,9.4258E-1,-3.4359384E-1,4.6369252E-1,4.562721E-1,-4.085188E-1,2.8124386E-1,-9.5807336E-2,1.6943788E-2,-6.452746E-2,1.1644863E-1,-4.985467E-2,-3.4071368E-3,-1.06458776E-1,6.0431767E-2,-6.5295905E-4,7.114144E-2,-4.811348E-3,-2.3615308E-2,-9.239411E-2,9.3844466E-2,1.0054046E-2],"categories":[],"categories_nodes":[],"categories_segments":[],"categories_sizes":[],"default_left":[0,0,0,0,0,0,0,0,0,0,0,0,0,0,0,0,0,0,0,0,0,0,0,0,0,0,0,0,0],"id":33,"left_children":[1,3,5,7,9,11,13,15,17,19,21,23,25,27,-1,-1,-1,-1,-1,-1,-1,-1,-1,-1,-1,-1,-1,-1,-1],"loss_changes":[3.6394281E0,4.1901493E0,3.1576242E0,3.722445E0,2.5465903E0,4.1166925E0,5.0040607E0,9.062507E-1,4.2452927E0,2.5919406E0,3.9199293E-1,8.770679E-1,3.2820058E0,3.0403464E0,0E0,0E0,0E0,0E0,0E0,0E0,0E0,0E0,0E0,0E0,0E0,0E0,0E0,0E0,0E0],"parents":[2147483647,0,0,1,1,2,2,3,3,4,4,5,5,6,6,7,7,8,8,9,9,10,10,11,11,12,12,13,13],"right_children":[2,4,6,8,10,12,14,16,18,20,22,24,26,28,-1,-1,-1,-1,-1,-1,-1,-1,-1,-1,-1,-1,-1,-1,-1],"split_conditions":[1E0,3.616781E-2,7.386247E-2,-7.9311466E-1,5.260112E-1,-1.6223972E0,1.8455114E0,-1.0192826E0,1.4399086E0,4.885037E-1,1.5439541E0,1.9626634E0,4.7833455E-1,2.6233575E-1,-9.5807336E-2,1.6943788E-2,-6.452746E-2,1.1644863E-1,-4.985467E-2,-3.4071368E-3,-1.06458776E-1,6.0431767E-2,-6.5295905E-4,7.114144E-2,-4.811348E-3,-2.3615308E-2,-9.239411E-2,9.3844466E-2,1.0054046E-2],"split_indices":[15,0,0,0,1,0,0,0,1,0,0,3,4,0,0,0,0,0,0,0,0,0,0,0,0,0,0,0,0],"split_type":[0,0,0,0,0,0,0,0,0,0,0,0,0,0,0,0,0,0,0,0,0,0,0,0,0,0,0,0,0],"sum_hessian":[1.0230458E2,3.0230099E1,7.2074486E1,1.4584661E1,1.5645439E1,4.3947765E1,2.8126722E1,4.1250033E0,1.0459657E1,1.0777058E1,4.8683815E0,5.5493717E0,3.839839E1,2.5395588E1,2.7311344E0,2.9973767E0,1.1276268E0,9.230323E0,1.2293339E0,8.272802E0,2.5042558E0,3.5280917E0,1.3402898E0,3.412639E0,2.1367326E0,2.9868162E1,8.5302305E0,4.572513E0,2.0823074E1],"tree_param":{"num_deleted":"0","num_feature":"23","num_nodes":"29","size_leaf_vector":"1"}},{"base_weights":[-1.3160829E-1,-2.9833356E-1,1.7723599E-1,1.661727E-1,-3.7729326E-1,2.7358028E-1,-5.0680375E-1,-7.74029E-2,5.5768675E-1,-4.2696276E-1,2.852973E-1,-1.97849E-1,5.162343E-1,-7.737704E-2,3.5403718E-3,7.9463266E-2,1.13527635E-2,-4.577029E-2,4.5723394E-2,8.8361494E-2,-6.7132376E-2,6.440344E-2,-5.325376E-2,7.1061306E-2,3.3466883E-2],"categories":[],"categories_nodes":[],"categories_segments":[],"categories_sizes":[],"default_left":[0,0,0,0,0,0,0,0,0,0,0,0,0,0,0,0,0,0,0,0,0,0,0,0,0],"id":34,"left_children":[1,3,5,7,9,11,13,-1,15,17,19,21,23,-1,-1,-1,-1,-1,-1,-1,-1,-1,-1,-1,-1],"loss_changes":[5.0213842E0,2.37467E0,2.4093518E0,4.058438E0,1.9050031E0,3.6312802E0,6.938735E-1,0E0,7.030208E-1,1.5901766E0,3.0989423E0,3.5005784E0,4.9076986E-1,0E0,0E0,0E0,0E0,0E0,0E0,0E0,0E0,0E0,0E0,0E0,0E0],"parents":[2147483647,0,0,1,1,2,2,3,3,4,4,5,5,6,6,8,8,9,9,10,10,11,11,12,12],"right_children":[2,4,6,8,10,12,14,-1,16,18,20,22,24,-1,-1,-1,-1,-1,-1,-1,-1,-1,-1,-1,-1],"split_conditions":[1E0,-1.2927952E0,1.9626634E0,-1.5993462E0,1E0,-5.7960755E-1,5.383068E-1,-7.74029E-2,1E0,1E0,1.9626634E0,-7.985646E-1,6.3667274E-1,-7.737704E-2,3.5403718E-3,7.9463266E-2,1.13527635E-2,-4.577029E-2,4.5723394E-2,8.8361494E-2,-6.7132376E-2,6.440344E-2,-5.325376E-2,7.1061306E-2,3.3466883E-2],"split_indices":[8,2,3,2,17,1,1,0,13,21,3,1,2,0,0,0,0,0,0,0,0,0,0,0,0],"split_type":[0,0,0,0,0,0,0,0,0,0,0,0,0,0,0,0,0,0,0,0,0,0,0,0,0],"sum_hessian":[9.549062E1,6.2035606E1,3.345502E1,8.852624E0,5.3182983E1,2.9850718E1,3.604303E0,2.3153682E0,6.5372562E0,4.980508E1,3.3779023E0,1.0206375E1,1.9644342E1,2.1289816E0,1.4753214E0,3.7484796E0,2.7887766E0,4.859787E1,1.2072102E0,2.125086E0,1.2528163E0,2.6403923E0,7.5659823E0,8.0801525E0,1.156419E1],"tree_param":{"num_deleted":"0","num_feature":"23","num_nodes":"25","size_leaf_vector":"1"}},{"base_weights":[-3.1764057E-2,-7.755412E-2,4.930063E-1,-2.7677411E-2,-7.6102364E-1,7.7269757E-1,-6.552704E-2,-1.0478703E-1,3.7698418E-1,8.920583E-6,-9.355492E-1,2.3325801E-1,1.0978556E-1,5.4627646E-2,-1.48892915E-2,-1.8119117E-3,6.1748613E-2,-2.907317E-2,-1.0633335E-1,7.486386E-2,-4.192956E-2],"categories":[],"categories_nodes":[],"categories_segments":[],"categories_sizes":[],"default_left":[0,0,0,0,0,0,0,0,0,0,0,0,0,0,0,0,0,0,0,0,0],"id":35,"left_children":[1,3,5,7,9,11,-1,13,15,-1,17,19,-1,-1,-1,-1,-1,-1,-1,-1,-1],"loss_changes":[2.4872108E0,3.203817E0,3.176853E0,2.8229897E0,8.4972954E-1,9.97241E-1,0E0,2.2553964E0,1.3885612E0,0E0,1.19596004E-1,1.6447031E0,0E0,0E0,0E0,0E0,0E0,0E0,0E0,0E0,0E0],"parents":[2147483647,0,0,1,1,2,2,3,3,4,4,5,5,7,7,8,8,10,10,11,11],"right_children":[2,4,6,8,10,12,-1,14,16,-1,18,20,-1,-1,-1,-1,-1,-1,-1,-1,-1],"split_conditions":[1.4647927E0,1.2227261E0,3.851915E0,7.0316243E-1,7.2778237E-1,-3.4077877E-1,-6.552704E-2,-9.438933E-1,8.463127E-1,8.920583E-6,-1.6977865E0,1.5563257E0,1.0978556E-1,5.4627646E-2,-1.48892915E-2,-1.8119117E-3,6.1748613E-2,-2.907317E-2,-1.0633335E-1,7.486386E-2,-4.192956E-2],"split_indices":[2,2,3,3,5,0,0,0,2,0,0,2,0,0,0,0,0,0,0,0,0],"split_type":[0,0,0,0,0,0,0,0,0,0,0,0,0,0,0,0,0,0,0,0,0],"sum_hessian":[1.0091637E2,9.360119E1,7.315178E0,8.820487E1,5.3963223E0,6.145395E0,1.1697829E0,7.470973E1,1.3495138E1,1.1930169E0,4.2033057E0,2.957029E0,3.1883657E0,4.017679E0,7.0692055E1,5.4562E0,8.038938E0,1.2369022E0,2.9664032E0,1.569896E0,1.3871332E0],"tree_param":{"num_deleted":"0","num_feature":"23","num_nodes":"21","size_leaf_vector":"1"}},{"base_weights":[4.311853E-2,-1.0411463E-1,3.0337256E-1,-3.8273662E-2,-1.0004213E-1,4.323052E-1,7.8783646E-2,-3.4649718E-1,5.9025105E-2,1.5360291E-2,5.5390227E-1,-1.7675634E-1,5.91637E-1,-1.1552068E-2,-8.964827E-2,-2.8217226E-2,2.0945875E-2,-6.41274E-2,3.0985255E-2,7.323294E-2,1.4404078E-2,2.8946087E-2,-1.20200075E-1,1.0040151E-1,-2.3158152E-2],"categories":[],"categories_nodes":[],"categories_segments":[],"categories_sizes":[],"default_left":[0,0,0,0,0,0,0,0,0,0,0,0,0,0,0,0,0,0,0,0,0,0,0,0,0],"id":36,"left_children":[1,3,5,7,-1,9,11,13,15,17,19,21,23,-1,-1,-1,-1,-1,-1,-1,-1,-1,-1,-1,-1],"loss_changes":[3.7824867E0,3.695158E0,9.9751735E-1,1.8190768E0,0E0,1.1276193E0,1.9675802E0,1.7429401E0,2.4427087E0,1.3760114E0,1.1611967E0,5.2510676E0,1.9155022E0,0E0,0E0,0E0,0E0,0E0,0E0,0E0,0E0,0E0,0E0,0E0,0E0],"parents":[2147483647,0,0,1,1,2,2,3,3,5,5,6,6,7,7,8,8,9,9,10,10,11,11,12,12],"right_children":[2,4,6,8,-1,10,12,14,16,18,20,22,24,-1,-1,-1,-1,-1,-1,-1,-1,-1,-1,-1,-1],"split_conditions":[1E0,1.8455114E0,4.7833455E-1,-7.78336E-1,-1.0004213E-1,-6.800307E-1,2.246411E-1,-7.835915E-1,-2.6538944E-1,-7.835915E-1,3.7541974E-1,-3.4077877E-1,1.0162289E0,-1.1552068E-2,-8.964827E-2,-2.8217226E-2,2.0945875E-2,-6.41274E-2,3.0985255E-2,7.323294E-2,1.4404078E-2,2.8946087E-2,-1.20200075E-1,1.0040151E-1,-2.3158152E-2],"split_indices":[8,0,4,1,0,0,0,1,0,1,0,0,0,0,0,0,0,0,0,0,0,0,0,0,0],"split_type":[0,0,0,0,0,0,0,0,0,0,0,0,0,0,0,0,0,0,0,0,0,0,0,0,0],"sum_hessian":[9.68887E1,6.226408E1,3.4624622E1,5.8974617E1,3.2894604E0,2.1409134E1,1.3215489E1,1.353553E1,4.5439087E1,5.0882683E0,1.6320866E1,9.257895E0,3.957594E0,1.03844385E1,3.1510918E0,1.3635895E1,3.1803192E1,1.2108523E0,3.877416E0,1.0822624E1,5.4982414E0,6.8572927E0,2.4006026E0,2.4904308E0,1.467163E0],"tree_param":{"num_deleted":"0","num_feature":"23","num_nodes":"25","size_leaf_vector":"1"}},{"base_weights":[2.4700748E-2,-9.1986045E-2,5.722824E-2,-3.8905177E-2,3.5298198E-1,2.5618777E-1,-1.327868E-1,4.3210426E-1,-1.0632113E-1,5.839822E-3,8.2208395E-2,2.2056994E-3,-3.6446225E-2,2.4672119E-2,7.353289E-2,3.1843368E-2,-5.0537664E-2],"categories":[],"categories_nodes":[],"categories_segments":[],"categories_sizes":[],"default_left":[0,0,0,0,0,0,0,0,0,0,0,0,0,0,0,0,0],"id":37,"left_children":[1,-1,3,5,7,9,11,13,15,-1,-1,-1,-1,-1,-1,-1,-1],"loss_changes":[2.9904623E0,0E0,2.6686196E0,2.0112877E0,8.819902E-1,1.9182847E0,1.9740624E0,9.3284583E-1,8.699896E-1,0E0,0E0,0E0,0E0,0E0,0E0,0E0,0E0],"parents":[2147483647,0,0,2,2,3,3,4,4,5,5,6,6,7,7,8,8],"right_children":[2,-1,4,6,8,10,12,14,16,-1,-1,-1,-1,-1,-1,-1,-1],"split_conditions":[-1.6276076E0,-9.1986045E-2,1E0,1E0,1.127515E0,8.463127E-1,4.6536484E-1,4.7833455E-1,1.2525145E0,5.839822E-3,8.2208395E-2,2.2056994E-3,-3.6446225E-2,2.4672119E-2,7.353289E-2,3.1843368E-2,-5.0537664E-2],"split_indices":[2,0,10,15,2,2,2,4,6,0,0,0,0,0,0,0,0],"split_type":[0,0,0,0,0,0,0,0,0,0,0,0,0,0,0,0,0],"sum_hessian":[9.461908E1,2.24175E0,9.237733E1,7.037176E1,2.200557E1,1.6567427E1,5.380433E1,1.8822338E1,3.1832306E0,1.30940485E1,3.473379E0,3.279206E1,2.1012272E1,1.2806475E1,6.0158634E0,1.6398283E0,1.5434023E0],"tree_param":{"num_deleted":"0","num_feature":"23","num_nodes":"17","size_leaf_vector":"1"}},{"base_weights":[2.4869159E-2,-5.3792242E-2,4.5272118E-1,-7.897247E-2,-1.0011259E-2,9.322619E-1,-3.0671455E-2,5.427161E-2,-5.8420237E-2,1.11560486E-1,-7.469722E-3,-8.890715E-2,3.457361E-1,-1.8613396E-2,2.0913761E-2,6.372689E-2,-4.526471E-2],"categories":[],"categories_nodes":[],"categories_segments":[],"categories_sizes":[],"default_left":[0,0,0,0,0,0,0,0,0,0,0,0,0,0,0,0,0],"id":38,"left_children":[1,3,5,-1,7,9,11,-1,13,-1,-1,-1,15,-1,-1,-1,-1],"loss_changes":[3.2578883E0,2.635752E0,3.5119576E0,0E0,2.1309583E0,1.4818974E0,3.038169E0,0E0,2.5348012E0,0E0,0E0,0E0,1.8235474E0,0E0,0E0,0E0,0E0],"parents":[2147483647,0,0,1,1,2,2,4,4,5,5,6,6,8,8,12,12],"right_children":[2,4,6,-1,8,10,12,-1,14,-1,-1,-1,16,-1,-1,-1,-1],"split_conditions":[1E0,-1.5245275E0,4.7833455E-1,-7.897247E-2,-1.2927952E0,9.792886E-1,-1.1461082E-1,5.427161E-2,4.8364583E-1,1.11560486E-1,-7.469722E-3,-8.890715E-2,1.0162289E0,-1.8613396E-2,2.0913761E-2,6.372689E-2,-4.526471E-2],"split_indices":[20,2,4,0,2,2,0,0,1,0,0,0,0,0,0,0,0],"split_type":[0,0,0,0,0,0,0,0,0,0,0,0,0,0,0,0,0],"sum_hessian":[9.507765E1,8.105061E1,1.4027035E1,3.5943105E0,7.745631E1,6.5754247E0,7.4516096E0,5.4151998E0,7.204111E1,5.4713326E0,1.1040922E0,1.8563039E0,5.595306E0,4.897035E1,2.3070757E1,4.2464857E0,1.3488201E0],"tree_param":{"num_deleted":"0","num_feature":"23","num_nodes":"17","size_leaf_vector":"1"}},{"base_weights":[4.9429193E-2,-3.649608E-2,4.9169573E-1,2.3183515E-2,-7.979737E-1,6.6451627E-1,-3.9686453E-1,-4.330893E-2,7.9291576E-1,-1.0048791E-1,-4.073627E-3,1.1901404E-1,3.012236E-1,-5.2620854E-2,-7.2374395E-3,4.8440057E-3,-3.9653312E-2,1.2882306E-1,1.6631683E-2,-1.996498E-2,8.32765E-2],"categories":[],"categories_nodes":[],"categories_segments":[],"categories_sizes":[],"default_left":[0,0,0,0,0,0,0,0,0,0,0,0,0,0,0,0,0,0,0,0,0],"id":39,"left_children":[1,3,5,7,9,11,13,15,17,-1,-1,-1,19,-1,-1,-1,-1,-1,-1,-1,-1],"loss_changes":[3.4960275E0,3.543458E0,2.5607018E0,3.7654827E0,8.467195E-1,2.1041393E0,9.0415895E-2,2.2246323E0,1.6008983E0,0E0,0E0,0E0,2.5529559E0,0E0,0E0,0E0,0E0,0E0,0E0,0E0,0E0],"parents":[2147483647,0,0,1,1,2,2,3,3,4,4,5,5,6,6,7,7,8,8,12,12],"right_children":[2,4,6,8,10,12,14,16,18,-1,-1,-1,20,-1,-1,-1,-1,-1,-1,-1,-1],"split_conditions":[1.0520471E0,5.8794E-1,1.5439541E0,4.9357957E-1,1E0,1.2899712E0,1.4600956E0,5.261984E-1,5.16254E-1,-1.0048791E-1,-4.073627E-3,1.1901404E-1,2.246411E-1,-5.2620854E-2,-7.2374395E-3,4.8440057E-3,-3.9653312E-2,1.2882306E-1,1.6631683E-2,-1.996498E-2,8.32765E-2],"split_indices":[1,1,0,1,8,1,1,0,1,0,0,0,0,0,0,0,0,0,0,0,0],"split_type":[0,0,0,0,0,0,0,0,0,0,0,0,0,0,0,0,0,0,0,0,0],"sum_hessian":[9.0523964E1,7.656592E1,1.3958047E1,7.190039E1,4.6655245E0,1.18963995E1,2.061647E0,6.7051926E1,4.8484693E0,3.4074492E0,1.258075E0,3.9317815E0,7.964618E0,1.0295961E0,1.032051E0,5.391144E1,1.3140482E1,2.118179E0,2.7302902E0,4.4220753E0,3.5425427E0],"tree_param":{"num_deleted":"0","num_feature":"23","num_nodes":"21","size_leaf_vector":"1"}},{"base_weights":[-3.4138106E-2,1.967309E-1,-2.0756626E-1,2.4144024E-1,-6.6190444E-2,-1.2638144E-1,-7.9099995E-1,1.7947176E-1,9.2869245E-2,-2.932255E-1,2.2761293E-1,6.889851E-3,-1.0920862E-1,2.4897907E-2,-6.0359556E-2,1.5882825E-2,-4.7024187E-2,4.4453766E-2,-2.0179093E-2],"categories":[],"categories_nodes":[],"categories_segments":[],"categories_sizes":[],"default_left":[0,0,0,0,0,0,0,0,0,0,0,0,0,0,0,0,0,0,0],"id":40,"left_children":[1,3,5,7,-1,9,11,13,-1,15,17,-1,-1,-1,-1,-1,-1,-1,-1],"loss_changes":[3.790804E0,1.7218176E0,2.4563055E0,1.511625E0,0E0,2.9351602E0,1.7328053E0,2.185266E0,0E0,2.751046E0,1.5913107E0,0E0,0E0,0E0,0E0,0E0,0E0,0E0,0E0],"parents":[2147483647,0,0,1,1,2,2,3,3,5,5,6,6,7,7,9,9,10,10],"right_children":[2,4,6,8,-1,10,12,14,-1,16,18,-1,-1,-1,-1,-1,-1,-1,-1],"split_conditions":[1E0,3.054111E0,1.2047023E0,3.2221644E0,-6.6190444E-2,7.386247E-2,-1.2927952E0,1.9626634E0,9.2869245E-2,1E0,7.341193E-2,6.889851E-3,-1.0920862E-1,2.4897907E-2,-6.0359556E-2,1.5882825E-2,-4.7024187E-2,4.4453766E-2,-2.0179093E-2],"split_indices":[19,6,0,3,0,0,2,3,0,15,3,0,0,0,0,0,0,0,0],"split_type":[0,0,0,0,0,0,0,0,0,0,0,0,0,0,0,0,0,0,0],"sum_hessian":[9.2657486E1,3.968891E1,5.2968575E1,3.8407818E1,1.2810948E0,4.7566334E1,5.40224E0,3.6387917E1,2.0198987E0,3.244573E1,1.5120604E1,1.6009922E0,3.8012478E0,3.4047783E1,2.340133E0,9.1589365E0,2.3286793E1,1.002232E1,5.098284E0],"tree_param":{"num_deleted":"0","num_feature":"23","num_nodes":"19","size_leaf_vector":"1"}},{"base_weights":[1.19443275E-2,-8.738376E-2,3.992838E-2,-9.360137E-3,5.1725745E-1,5.6170315E-1,-6.3054435E-2,9.592048E-1,-2.373603E-1,8.43595E-2,-5.9973508E-2,-1.44988075E-2,2.6591374E-2,2.281349E-2,1.07602715E-1,-4.2547863E-2,1.4848157E-2],"categories":[],"categories_nodes":[],"categories_segments":[],"categories_sizes":[],"default_left":[0,0,0,0,0,0,0,0,0,0,0,0,0,0,0,0,0],"id":41,"left_children":[1,-1,3,5,7,9,11,13,15,-1,-1,-1,-1,-1,-1,-1,-1],"loss_changes":[2.3379097E0,0E0,2.1462655E0,2.595264E0,3.074707E0,2.8880498E0,2.1195796E0,2.3126364E-1,3.5022098E-1,0E0,0E0,0E0,0E0,0E0,0E0,0E0,0E0],"parents":[2147483647,0,0,2,2,3,3,4,4,5,5,6,6,7,7,8,8],"right_children":[2,-1,4,6,8,10,12,14,16,-1,-1,-1,-1,-1,-1,-1,-1],"split_conditions":[-1.6276076E0,-8.738376E-2,1E0,-1.6223972E0,3.616781E-2,3.054111E0,1.0520471E0,-7.1772534E-1,-3.5749388E-1,8.43595E-2,-5.9973508E-2,-1.44988075E-2,2.6591374E-2,2.281349E-2,1.07602715E-1,-4.2547863E-2,1.4848157E-2],"split_indices":[2,0,14,0,0,6,1,0,1,0,0,0,0,0,0,0,0],"split_type":[0,0,0,0,0,0,0,0,0,0,0,0,0,0,0,0,0],"sum_hessian":[9.190949E1,1.8890467E0,9.002045E1,8.248366E1,7.536789E0,6.275863E0,7.6207794E1,4.5821223E0,2.9546666E0,5.2703614E0,1.0055019E0,6.145974E1,1.47480545E1,1.0381641E0,3.5439582E0,1.9172015E0,1.0374651E0],"tree_param":{"num_deleted":"0","num_feature":"23","num_nodes":"17","size_leaf_vector":"1"}},{"base_weights":[1.2936869E-2,-5.469905E-2,3.613884E-1,-9.327966E-3,-7.416085E-1,4.900509E-1,-3.6332704E-2,8.519423E-1,-7.4318215E-2,-8.850061E-2,-2.6032357E-2,6.3267756E-1,-1.2662372E-1,9.36759E-2,2.4980651E-2,-1.113158E-2,7.0090696E-2,7.618162E-2,-9.333457E-3,5.8131933E-2,-8.048021E-2],"categories":[],"categories_nodes":[],"categories_segments":[],"categories_sizes":[],"default_left":[0,0,0,0,0,0,0,0,0,0,0,0,0,0,0,0,0,0,0,0,0],"id":42,"left_children":[1,3,5,7,9,11,-1,13,15,-1,-1,17,19,-1,-1,-1,-1,-1,-1,-1,-1],"loss_changes":[2.1903968E0,2.423973E0,1.586284E0,4.215402E0,1.0226107E-1,1.2456346E0,0E0,3.589821E-2,2.082677E0,0E0,0E0,1.0957742E0,2.0629616E0,0E0,0E0,0E0,0E0,0E0,0E0,0E0,0E0],"parents":[2147483647,0,0,1,1,2,2,3,3,4,4,5,5,7,7,8,8,11,11,12,12],"right_children":[2,4,6,8,10,12,-1,14,16,-1,-1,18,20,-1,-1,-1,-1,-1,-1,-1,-1],"split_conditions":[1.0520471E0,2.1533127E0,1.6503367E0,-1.1700612E0,5.383068E-1,2.0088015E0,-3.6332704E-2,1.2525145E0,1.4217534E0,-8.850061E-2,-2.6032357E-2,1.5439541E0,1E0,9.36759E-2,2.4980651E-2,-1.113158E-2,7.0090696E-2,7.618162E-2,-9.333457E-3,5.8131933E-2,-8.048021E-2],"split_indices":[1,6,2,0,1,1,0,6,4,0,0,0,9,0,0,0,0,0,0,0,0],"split_type":[0,0,0,0,0,0,0,0,0,0,0,0,0,0,0,0,0,0,0,0,0],"sum_hessian":[9.1101326E1,7.69986E1,1.4102732E1,7.317865E1,3.8199465E0,1.2251467E1,1.8512653E0,4.284914E0,6.889374E1,2.296785E0,1.5231614E0,9.929084E0,2.3223827E0,3.2687514E0,1.0161624E0,6.657295E1,2.3207834E0,8.387796E0,1.5412873E0,1.2061343E0,1.1162483E0],"tree_param":{"num_deleted":"0","num_feature":"23","num_nodes":"21","size_leaf_vector":"1"}},{"base_weights":[7.2542705E-2,-8.332005E-2,9.852644E-2,3.57024E-1,-3.868873E-2,2.6856145E-1,1.10717736E-1,1.6220586E-2,-1.0055115E-1,3.4569312E-2,-2.775508E-2,-2.6407892E-2,1.3638136E-2],"categories":[],"categories_nodes":[],"categories_segments":[],"categories_sizes":[],"default_left":[0,0,0,0,0,0,0,0,0,0,0,0,0],"id":43,"left_children":[1,-1,3,5,7,9,-1,11,-1,-1,-1,-1,-1],"loss_changes":[2.245343E0,0E0,3.2149184E0,1.7858396E0,3.193965E0,1.3343825E0,0E0,1.9768556E0,0E0,0E0,0E0,0E0,0E0],"parents":[2147483647,0,0,2,2,3,3,4,4,5,5,7,7],"right_children":[2,-1,4,6,8,10,-1,12,-1,-1,-1,-1,-1],"split_conditions":[-8.721693E-1,-8.332005E-2,-5.8118224E-1,-6.270193E-1,1.9585954E0,-7.542993E-1,1.10717736E-1,-1.3575795E-1,-1.0055115E-1,3.4569312E-2,-2.775508E-2,-2.6407892E-2,1.3638136E-2],"split_indices":[1,0,1,1,0,1,0,1,0,0,0,0,0],"split_type":[0,0,0,0,0,0,0,0,0,0,0,0,0],"sum_hessian":[9.0917915E1,1.6691267E0,8.924879E1,3.0391943E1,5.8856842E1,2.8400764E1,1.9911788E0,5.6624176E1,2.2326663E0,2.5207506E1,3.1932592E0,1.663108E1,3.99931E1],"tree_param":{"num_deleted":"0","num_feature":"23","num_nodes":"13","size_leaf_vector":"1"}},{"base_weights":[-3.510567E-2,6.076769E-1,-8.873397E-2,8.962444E-2,-2.6023261E-2,-1.631997E-1,3.10376E-1,4.4045346E-3,-8.573319E-3,-5.722518E-2,-5.9072804E-1,7.753633E-1,7.6787375E-2,-1.3001572E-3,-8.851632E-2,-1.03818476E-1,-2.3611937E-2,9.548261E-2,1.8992208E-2,-4.699604E-2,4.774713E-2],"categories":[],"categories_nodes":[],"categories_segments":[],"categories_sizes":[],"default_left":[0,0,0,0,0,0,0,0,0,0,0,0,0,0,0,0,0,0,0,0,0],"id":44,"left_children":[1,3,5,-1,7,9,11,-1,-1,13,15,17,19,-1,-1,-1,-1,-1,-1,-1,-1],"loss_changes":[3.0425518E0,1.2675054E0,2.4548588E0,0E0,1.6748512E-2,3.084706E0,1.3594922E0,0E0,0E0,2.0486126E0,1.9072757E0,2.6608992E-1,2.3726358E0,0E0,0E0,0E0,0E0,0E0,0E0,0E0,0E0],"parents":[2147483647,0,0,1,1,2,2,4,4,5,5,6,6,9,9,10,10,11,11,12,12],"right_children":[2,4,6,-1,8,10,12,-1,-1,14,16,18,20,-1,-1,-1,-1,-1,-1,-1,-1],"split_conditions":[-1.6223972E0,1.9626634E0,1.0520471E0,8.962444E-2,1E0,3.517162E-1,1.3336037E0,4.4045346E-3,-8.573319E-3,7.0316243E-1,1E0,4.885037E-1,2.246411E-1,-1.3001572E-3,-8.851632E-2,-1.03818476E-1,-2.3611937E-2,9.548261E-2,1.8992208E-2,-4.699604E-2,4.774713E-2],"split_indices":[0,3,1,0,8,6,1,0,0,3,8,0,0,0,0,0,0,0,0,0,0],"split_type":[0,0,0,0,0,0,0,0,0,0,0,0,0,0,0,0,0,0,0,0,0],"sum_hessian":[8.569899E1,5.803819E0,7.989517E1,3.7031949E0,2.100624E0,6.783049E1,1.2064685E1,1.0871806E0,1.0134435E0,5.5265327E1,1.2565162E1,3.2586267E0,8.806058E0,5.3427258E1,1.8380681E0,4.7030325E0,7.862129E0,2.0111668E0,1.24746E0,3.6511016E0,5.154956E0],"tree_param":{"num_deleted":"0","num_feature":"23","num_nodes":"21","size_leaf_vector":"1"}},{"base_weights":[9.7752534E-2,1.3450468E-1,-7.3890215E-1,-8.12349E-2,1.592721E-1,-8.900903E-2,-1.8769419E-2,4.855058E-1,7.2573066E-2,9.377709E-2,2.1345934E-2,-2.7740715E-2,1.44266365E-2],"categories":[],"categories_nodes":[],"categories_segments":[],"categories_sizes":[],"default_left":[0,0,0,0,0,0,0,0,0,0,0,0,0],"id":45,"left_children":[1,3,5,-1,7,-1,-1,9,11,-1,-1,-1,-1],"loss_changes":[2.9610152E0,2.2398572E0,1.7211914E-1,0E0,2.4689465E0,0E0,0E0,2.0653458E0,1.8245909E0,0E0,0E0,0E0,0E0],"parents":[2147483647,0,0,1,1,2,2,4,4,7,7,8,8],"right_children":[2,4,6,-1,8,-1,-1,10,12,-1,-1,-1,-1],"split_conditions":[3.054111E0,-1.6276076E0,-7.691616E-2,-8.12349E-2,-6.800307E-1,-8.900903E-2,-1.8769419E-2,-7.542993E-1,-4.161681E-1,9.377709E-2,2.1345934E-2,-2.7740715E-2,1.44266365E-2],"split_indices":[6,2,0,0,0,0,0,1,0,0,0,0,0],"split_type":[0,0,0,0,0,0,0,0,0,0,0,0,0],"sum_hessian":[9.206459E1,8.8994514E1,3.0700707E0,1.4579582E0,8.753656E1,1.9267836E0,1.1432872E0,1.7413317E1,7.0123245E1,5.621209E0,1.1792109E1,1.1434566E1,5.8688675E1],"tree_param":{"num_deleted":"0","num_feature":"23","num_nodes":"13","size_leaf_vector":"1"}}]},"name":"gbtree"},"learner_model_param":{"base_score":"[5E-1]","boost_from_average":"1","num_class":"0","num_feature":"23","num_target":"1"},"objective":{"name":"binary:logistic","reg_loss_param":{"scale_pos_weight":"1.60805869"}}},"version":[3,2,0]}